%YAML:1.0
---
opencv_ml_svm:
   format: 3
   svmType: C_SVC
   kernel:
      type: INTER
      gamma: 5.383
   C: 2.6699999999999999
   term_criteria: { epsilon:1.1920928955078125e-07, iterations:1000 }
   var_count: 64
   class_count: 16
   class_labels: !!opencv-matrix
      rows: 16
      cols: 1
      dt: i
      data: [ 0, 1, 2, 3, 4, 5, 6, 7, 8, 9, 10, 11, 12, 13, 14, 15 ]
   sv_total: 2795
   support_vectors:
      - [ 0., 0., 0., 0., 0., 0.0110917864, 4.20811939, 52.4437714,
          13.2962446, 2.66445065, 0.0124009186, 0., 0.0124009186, 0., 0.,
          0., 0., 0., 0., 0.0156862736, 0., 4.96519279, 6.30155182,
          0.0156862736, 0., 0.0110917864, 0., 0., 0., 0., 0., 0.,
          88.4836273, 43.7268105, 7.15991449, 20.2722111, 6.376019,
          3.79428101, 9.51815701, 41.0424042, 77.5462799, 44.5413589,
          10.8191366, 23.3279572, 38.0510139, 15.3173628, 70.4444275, 0.,
          90.3392334, 14.406271, 24.22122, 23.2712536, 10.1343966,
          11.6559744, 9.82867241, 83.0828781, 4.76673508, 0.590511739,
          0., 0., 0.022866426, 0.0341754146, 0.0323972106, 0. ]
      - [ 34.6220398, 6.84045315, 0.02480218, 0.0355727524, 7.31736374,
          30.3052807, 27.0829678, 29.497118, 68.5185394, 12.0610609,
          0.0647086799, 0.00784301758, 2.2876668, 7.07832193, 15.2944603,
          0., 0., 0., 0., 0., 3.0949502, 5.74110937, 3.07299399,
          15.673151, 15.134222, 1.63764668, 0., 0.00784301758, 0., 0.,
          0., 0., 54.8528442, 66.5306702, 11.547471, 33.3751106,
          29.3380661, 29.8253212, 12.9497833, 15.4510098, 1.13349068,
          34.5738029, 35.2961197, 58.8365936, 29.1980877, 53.6668282,
          6.24013853, 0., 93.6017151, 53.2338676, 3.45098329, 7.84887648,
          0.0350755751, 0.0443673134, 0.0124010695, 10.8690357,
          89.9434052, 4.49435472, 0.012401145, 0.0235292912, 0.,
          0.0339581706, 0.0820015669, 0. ]
      - [ 0.0156862736, 4.72350264, 30.9458256, 22.1054363, 13.7790079,
          6.84026241, 9.17796707, 10.8020821, 10.0580997, 23.6434231,
          35.2607079, 12.8596811, 4.70753098, 1.58366215, 6.94873619, 0.,
          54.8030853, 14.6245251, 0.0352675505, 0.852513552, 2.2486074,
          3.05075502, 5.60535574, 66.9216995, 48.2846375, 2.45330954, 0.,
          0.0235290527, 0.0299387053, 0.499562502, 6.44209957, 0.,
          99.8323593, 25.1338272, 9.11644936, 5.96427679, 2.4976244,
          4.49270296, 7.57717323, 35.1719284, 48.6047707, 18.071949,
          11.5002823, 12.6110449, 5.79707575, 12.5954361, 5.38965464, 0.,
          47.4383049, 6.31526184, 0.012401145, 0.0634118617, 0.,
          0.0393707193, 0.0298657995, 5.71818876, 0., 0., 0., 0.,
          0.028278932, 0.0339582935, 2.62549973, 0. ]
      - [ 56.5668068, 40.9549484, 33.2032051, 40.0012245, 18.3495712,
          31.246666, 31.988924, 104.612343, 61.2530174, 56.2279091,
          37.6799889, 32.0945587, 23.9716129, 34.8440514, 122.647705,
          0.0235294141, 0., 0., 0., 0.0235295296, 0.0474035665,
          5.9628253, 86.5066986, 58.890358, 0.0496042781, 0.0166376792,
          0., 0., 0.02480218, 4.24952316, 73.1010437, 0., 0.0764188915,
          0.00554589322, 0., 0., 0., 0., 0., 0., 0., 0., 0., 0., 0.,
          0.0110917864, 0.044798281, 0., 8.09972858, 5.64745378,
          7.21703529, 0.0670553893, 7.36995125, 7.41808891, 9.13982201,
          0., 0., 0., 0., 0.0748981684, 0.139643088, 26.0312157,
          47.5754547, 0. ]
      - [ 47.7882004, 34.3980141, 0.16384016, 0., 0.0175377876,
          0.0277296342, 0.0898164064, 33.9398308, 72.1386185, 58.0245323,
          8.1738081, 3.12254381, 0.0124009186, 5.44252205, 3.16136336,
          0., 0.0298657995, 0.865208626, 23.7152538, 18.6396427,
          7.29195309, 8.76842403, 7.38914442, 7.97635412, 0.024802139,
          0.383053333, 0., 0.541687787, 0.399923116, 0.0166376792, 0.,
          0., 108.396851, 52.1897964, 26.5827808, 14.4218025,
          0.369419277, 3.49302626, 4.34693241, 11.9267111, 75.6171722,
          54.0075073, 24.5363388, 10.6968594, 9.30606842, 11.7244635,
          14.9874725, 0., 63.2161064, 12.8099689, 10.9537287,
          0.0670549124, 9.97531319, 5.85848999, 21.2337284, 117.599426,
          0.0299388021, 0.0665508881, 0.0499354675, 0.0549015999,
          0.012401145, 3.49052691, 73.7508163, 0. ]
      - [ 0., 0., 0., 0.00784301758, 0.0175377876, 1.72507608,
          8.58459663, 11.7970676, 11.7370739, 0.948709428, 0.0175377876,
          0.00784301758, 0., 0., 0., 0., 0., 0., 0., 0., 0., 0., 0., 0.,
          0., 0., 0., 0., 0., 0., 0., 0., 73.9610596, 32.6496735,
          15.2073698, 41.3751602, 19.2677708, 22.7444553, 3.3815372,
          21.3522758, 56.2889824, 25.9380283, 42.9239807, 27.0461922,
          22.8555069, 18.450983, 15.5875978, 0., 89.3551559, 3.98209023,
          0.0248022899, 4.2000103, 0.0124009186, 5.31825209, 5.858953,
          81.0085449, 19.0273113, 0.178895235, 0., 0.00784301758,
          0.117647052, 0.0166378487, 16.6239433, 0. ]
      - [ 42.475666, 41.0630074, 7.0854249, 3.12634015, 0.0248020627,
          0.00554589322, 0.024802139, 14.0723572, 63.477459, 28.1403408,
          15.7887659, 7.99357128, 0., 0.0110917864, 0.019996142, 0.,
          24.1189995, 1.0372535, 19.8170948, 22.4179993, 15.751668,
          10.3827162, 17.9775658, 38.095665, 2.08481574, 21.1853142,
          16.9615822, 7.00883579, 2.13651729, 5.66745186, 8.77038193, 0.,
          40.8236656, 12.121089, 0., 0.0235295296, 8.81312084,
          19.5312443, 15.7995081, 8.67591953, 24.2982826, 27.0993271,
          7.84051991, 14.6645222, 25.6504879, 30.5240307, 10.5184097, 0.,
          118.912811, 43.2470093, 14.5330114, 9.02085876, 4.16607571,
          7.47194719, 8.16174698, 95.2644653, 10.6195345, 27.3276787, 0.,
          0.00784313865, 1.75708413, 13.0952778, 4.44534159, 0. ]
      - [ 5.76706457, 1.1416322, 0., 0., 0.0124013703, 0.039504312,
          0.12713863, 61.7916527, 32.5464287, 9.31623268, 0.0525315702,
          0.00784301758, 0.0372032076, 1.24530649, 1.99552763, 0., 0.,
          0., 0., 0.0905846804, 0.0124009186, 16.134161, 22.6450062,
          0.0799846649, 0., 0.0110917864, 0.0175377876, 0.0156862736, 0.,
          0.410399258, 0., 0., 118.254456, 30.1894226, 11.6632204,
          15.2407312, 22.4225578, 5.64673281, 7.64179087, 0.0869415402,
          58.5845718, 46.7900391, 14.0163898, 46.79533, 28.0067368,
          12.2719917, 15.7939434, 0., 99.1702118, 31.2051659, 31.215807,
          26.2164745, 18.7633038, 12.668664, 12.9724712, 93.5871582,
          9.62188435, 7.684618, 8.93302345, 17.0642872, 11.6590509,
          8.57272053, 15.1867752, 0. ]
      - [ 15.4197407, 7.53023672, 10.862504, 39.4331474, 0., 2.63984179,
          23.6411171, 43.3097763, 22.518795, 18.2818642, 9.33548164,
          47.2723122, 0.0423398502, 22.8759193, 29.7414284, 0., 0., 0.,
          0., 14.9824142, 24.9537525, 32.2799759, 16.5597916,
          0.0627450943, 0., 1.5656209, 7.45090199, 11.0221682,
          17.0939102, 6.72294617, 0., 0., 88.1970978, 5.64191675,
          0.0474764928, 3.26955581, 28.6007328, 0.0166378077, 3.19000936,
          2.37896419, 83.4641724, 12.7411842, 6.36612749, 29.2702351,
          16.0044861, 6.59801054, 14.4783297, 0., 125.920959, 14.8760891,
          36.3258247, 7.94517565, 6.35760403, 7.60334492, 7.23529291,
          103.227028, 16.8933067, 7.88900948, 0., 0., 5.72823191,
          10.5500984, 6.06834888, 0. ]
      - [ 0.0235294104, 17.6430206, 10.5899267, 56.2911987, 8.7811594,
          15.9261694, 2.77719593, 33.7998352, 28.4678745, 22.6881866,
          27.8588772, 27.2698231, 11.5228968, 11.7280426, 8.6119051, 0.,
          15.4451551, 1.16940546, 0., 6.90484047, 3.27504659, 10.3933868,
          6.33260727, 25.5943203, 43.3885155, 1.60429597, 0.0124009186,
          128.015686, 2.94529843, 0., 3.48322296, 0., 36.5071678,
          0.824324727, 0.161690399, 0.0235292912, 0.272823989,
          0.011091955, 3.31914401, 35.4793243, 2.55662227, 0.0860960707,
          0.0199963301, 0.12548995, 9.14122391, 11.735383, 43.0422173,
          0., 40.9754028, 13.9602137, 2.93335962, 0.0392158031, 0.,
          0.0339584164, 0., 0.381402135, 0., 0., 0., 128., 0.0175377876,
          6.71683836, 2.28234482, 0. ]
      - [ 6.38271427, 7.13105822, 9.34922981, 30.1863003, 29.8166847,
          20.1169872, 5.217484, 7.17250824, 18.8615398, 21.5397873,
          7.24725723, 39.9438629, 17.0430355, 4.10206842, 0.384913445,
          0., 0., 0., 0., 0.00784301758, 2.86467838, 5.4445014,
          3.1125257, 7.64832067, 21.5829277, 0.499371827, 0.0299387053,
          128., 0.0299387053, 0., 0., 0., 22.0292854, 3.24283147,
          1.38031423, 2.85507989, 9.58456993, 5.08090448, 4.13719416,
          48.3162231, 0., 0., 0., 2.5652132, 15.5544786, 27.4732342,
          39.7153282, 0., 66.3883514, 8.42993259, 12.6228828, 7.29614162,
          0., 0., 0.0846550539, 31.656105, 31.2296143, 0.205274537, 0.,
          128., 0., 1.2923106, 16.5262966, 0. ]
      - [ 18.2979221, 2.61795378, 0., 0., 0., 0.0388212539, 0.024802139,
          45.7501831, 55.6163597, 4.28888607, 0.0598774105, 0.0392154455,
          0., 0., 0., 0., 10.9147663, 0., 0., 0.0235290527, 6.82927275,
          18.0433121, 21.7649193, 42.9244308, 0.0423398726, 0.0166376792,
          0., 0., 0.0889081061, 1.80414915, 16.9266491, 0., 90.7939529,
          28.0399895, 2.21188593, 2.69206452, 6.67372799, 9.01542377,
          40.8778992, 7.58851671, 53.7481842, 17.8459091, 17.0100079,
          14.8544664, 19.1992359, 49.7850151, 34.1201172, 0., 129.121033,
          76.930397, 31.0010052, 16.9012108, 7.29190254, 5.98229074,
          10.825057, 88.6420746, 61.560833, 29.7652664, 7.39582109,
          2.13796878, 10.9155254, 10.1293449, 18.004591, 0. ]
      - [ 45.7586441, 2.33748817, 0., 0., 0.0299389325, 0.0499132052,
          0.0654821172, 26.2182713, 71.017128, 3.20769382, 0.0526133627,
          0.063521713, 0.012401145, 0., 0., 0., 4.90682554, 0., 0.,
          10.8337688, 12.5985346, 8.51743889, 9.32096767, 23.8962593,
          0.024802139, 0.00554589322, 0., 5.80673027, 0., 2.38655329,
          6.59977436, 0., 76.3831329, 54.236763, 14.2348452, 20.5179825,
          2.42836642, 4.6267705, 7.92081165, 15.571785, 96.8617935,
          35.0951653, 11.2933664, 30.1366005, 16.6940765, 11.8668261,
          42.3174057, 0., 109.803314, 50.0214958, 13.189435, 0.110471159,
          6.27947092, 1.85852134, 19.5399075, 101.607468, 18.6735554,
          14.8780508, 0.0248018373, 0.00784301758, 0., 1.20604622,
          23.5256977, 0. ]
      - [ 54.5912933, 9.11254025, 11.3872452, 6.56396675, 0.,
          0.00554589322, 0.0620053485, 41.8856468, 40.77351, 18.8393383,
          9.33342457, 15.6782284, 0.0175377876, 0.0221835729, 7.96993113,
          0., 0., 0.770906866, 14.8209715, 10.6824036, 7.54549265,
          19.2992916, 24.1438675, 19.1263752, 0.0124010695, 21.5474529,
          0., 7.10287952, 2.54350543, 6.16653633, 16.7074585, 0.,
          62.4585724, 2.95948935, 0.0175377894, 8.79285049, 19.5627823,
          3.88830304, 0.0299388245, 9.5205698, 56.6382408, 15.9358664,
          8.16467953, 22.8020878, 22.617487, 7.81476545, 15.6510315, 0.,
          106.161736, 47.64254, 20.0259571, 9.73486042, 2.24060917,
          6.77985382, 16.3494358, 97.9541702, 14.8583555, 5.20777464,
          0.012401145, 3.79589128, 8.06902122, 5.97946072, 9.70687485,
          0. ]
      - [ 0., 0., 0., 0., 0.0199963301, 5.94286966, 8.77153111,
          18.9755096, 18.8348026, 1.5489316, 0.0199960954, 0.00784301758,
          0., 0., 0., 0., 0., 0., 0., 0., 0., 0., 0., 0., 0., 0., 0., 0.,
          0., 0., 0., 0., 96.1362228, 42.9754868, 26.1913433, 117.43148,
          20.860651, 15.673501, 4.12310934, 51.7406197, 71.8080063,
          32.8997574, 31.7335167, 103.326057, 21.6370163, 36.9422607,
          34.4668045, 0., 107.09935, 7.99712896, 3.30248189, 0.146262899,
          3.14337611, 5.01918459, 17.2298889, 121.67231, 28.4556084,
          0.100103237, 0., 0.0356821306, 0.0404044166, 1.80758929,
          54.4209442, 0. ]
      - [ 10.1494865, 0., 0., 0., 0., 0.0110917864, 0.0124010695,
          4.98357582, 22.1958275, 6.1142354, 0.0124009186, 0.00784301758,
          0.0372032076, 0.0110917864, 0.859315813, 0., 3.37284565, 0.,
          0.0124009186, 7.09358215, 7.09557819, 7.28082371, 6.784935,
          6.93823433, 6.55224657, 0.0443674847, 0., 2.88432384,
          3.85925007, 0., 5.57620382, 0., 33.6663628, 43.0111389,
          11.5102396, 0., 1.87359071, 5.75976753, 0.638722301,
          2.36295724, 11.0203419, 72.2834244, 13.8375931, 3.11613202,
          4.01337528, 10.2447882, 9.39568615, 0., 108.062363, 32.0628204,
          17.3632164, 3.14358258, 0.0299387053, 2.02026272, 4.59235764,
          75.1602936, 42.1084862, 16.021925, 1.4594171, 0.0235295296, 0.,
          1.12835944, 5.8133316, 0. ]
      - [ 20.2233276, 6.53822565, 0., 0.0235292912, 6.66101265,
          12.7006054, 13.0072851, 30.3670979, 27.2227554, 9.14444256,
          0.067472823, 0.0156860352, 2.74667192, 4.10574913, 15.7123489,
          0., 0., 0., 0., 0., 0., 0., 0., 0., 0., 0., 0., 0., 0., 0., 0.,
          0., 47.2044945, 16.4253197, 47.2005539, 63.8968277, 27.5875854,
          11.2384834, 47.0263367, 84.3645477, 7.1250658, 35.3615036,
          33.5399399, 70.4679718, 18.4527645, 41.4305115, 85.7401581, 0.,
          33.7633858, 6.01575708, 4.43911505, 0.0156862736, 4.34945297,
          0.671082437, 11.5932312, 117.20047, 0.841439545, 0.0395041071,
          0.0175379999, 0., 0., 0.762825847, 89.3225937, 0. ]
      - [ 0., 0.00554589322, 0., 0.00784301758, 0.0599882863, 2.74523902,
          34.4802322, 29.6850071, 29.3410854, 8.27139664, 0.0477258302,
          0., 0., 0., 0., 0., 0., 0., 0., 0., 0., 0., 0., 0., 0., 0., 0.,
          0., 0., 0., 0., 0., 71.7131424, 21.6812668, 9.10769463,
          10.2826796, 5.44856691, 32.0419426, 45.5836411, 77.791687,
          0.0323381089, 17.3012581, 11.8165627, 16.149044, 20.8918037,
          64.0148163, 100.864372, 0., 173.897949, 21.1336823, 6.20714378,
          2.56650901, 5.42218637, 5.97628927, 8.98123455, 154.6763,
          30.4567757, 1.62894928, 0., 0.0235291719, 0., 0.0443671457,
          3.64833999, 0. ]
      - [ 26.5209656, 16.4285831, 4.67619562, 0.0199963301, 6.44661093,
          12.9742289, 26.9432259, 44.263546, 27.7251434, 11.7246046,
          10.3855276, 0.0156860352, 0.0175377876, 16.8532677, 26.3986645,
          0., 0., 0., 0., 0., 0., 0., 0., 0., 0., 0., 0., 128., 0., 0.,
          0., 0., 49.3421021, 32.4332924, 21.9093552, 26.1405029,
          21.8200111, 20.5179329, 27.1652679, 56.9462852, 24.467432,
          29.7615299, 11.2571621, 25.1947155, 42.2215919, 48.7487793,
          39.0273552, 0., 41.6386795, 8.94744778, 3.25579214, 8.58365822,
          15.3192978, 6.00849771, 2.82982302, 18.81036, 31.9050293,
          7.37152386, 2.77447033, 130.150497, 6.48426914, 6.03386545,
          6.42471457, 0. ]
      - [ 24.1325817, 15.6606493, 0., 0., 0., 0.0110917864, 0.0124010695,
          11.1552181, 76.0123672, 8.66696167, 0.0576686673,
          0.00784301758, 0., 0., 0., 0., 23.1557064, 0.982283413,
          1.34254706, 14.8644133, 15.679986, 9.75721073, 18.0120296,
          19.1547108, 13.4221516, 0.0332754031, 8.45300388, 3.13513041,
          5.69861794, 4.06070948, 1.41651988, 0., 46.838913, 61.3721542,
          19.6248894, 7.30147505, 9.6051178, 14.4336205, 12.6168861,
          6.82534456, 23.7802887, 85.720665, 15.6383533, 23.4089813,
          17.0006561, 40.5766068, 17.2395763, 0., 134.325638, 63.3756523,
          44.2630539, 13.9450102, 4.14128447, 6.0194211, 20.5308304,
          114.751083, 28.1960239, 42.9973412, 4.04520798, 0.,
          0.100911476, 10.0968618, 7.75868607, 0. ]
      - [ 0., 0., 0.0124009186, 0., 0.0124009186, 8.64210606, 9.34917164,
          12.5363531, 19.7488747, 3.29257131, 0.636913955, 0., 0., 0.,
          0.953336418, 0., 0., 0., 0., 0., 0., 0., 0., 0., 0., 0., 0.,
          0., 0., 0., 0., 0., 113.768867, 33.221344, 37.275425,
          28.1655273, 26.7086525, 3.03980231, 7.28864098, 43.4383354,
          40.8045654, 53.6652412, 40.3586769, 28.1866398, 16.5564022,
          11.1660471, 19.86759, 0., 66.0602798, 7.36297846, 0.0124009186,
          3.57810616, 0.0248022899, 4.05360222, 7.32272387, 75.6463318,
          8.94536114, 0.178119719, 0., 0.0313725471, 0., 0.0166376792,
          21.4165058, 0. ]
      - [ 0., 0., 0., 0.0278393477, 0.0199960954, 0.221921384,
          1.55767989, 2.24010134, 0.927342117, 0.0277294666, 0.037533883,
          0., 0.0404044166, 0., 0., 0., 0., 0., 0., 0., 0., 0., 0., 0.,
          0., 0., 0., 0., 0., 0., 0., 0., 96.4614182, 38.0675735,
          67.1695099, 53.4084816, 39.9032097, 33.3951187, 27.5997658,
          98.1068497, 41.7479401, 70.6443558, 48.404007, 52.9544525,
          43.4330559, 37.9445229, 44.7652245, 0., 168.676743, 17.9103127,
          6.99513483, 0.141953558, 10.1514292, 5.05841637, 6.23610878,
          95.5243759, 75.7998657, 6.80239964, 0.01240109, 0.0470588207,
          0., 0.0166377202, 0.0248021595, 0. ]
      - [ 9.09466648, 18.9502735, 9.37348175, 26.1060848, 14.3816986,
          14.4507647, 12.4805098, 27.6172199, 8.30591393, 24.9658794,
          10.7763271, 28.4011097, 5.94566822, 17.885788, 4.73128748, 0.,
          0., 0., 0., 0., 0., 0., 0., 0., 0., 0., 0., 0., 0., 0., 0., 0.,
          65.0764084, 15.4941654, 25.5645638, 68.0204086, 9.50692654,
          14.0156231, 18.3212242, 56.9542236, 5.21536684, 33.1898346,
          20.5949764, 73.4331207, 10.2697067, 13.91259, 43.1747742, 0.,
          141.488098, 4.10577393, 0.784223139, 1.05355394, 2.61509442,
          2.86185884, 2.32352734, 140.90152, 11.3217497, 0.0720969513,
          0., 0.00784301758, 0.0124009186, 1.36414528, 10.7424984, 0. ]
      - [ 44.6043587, 52.3657379, 12.0370827, 42.840519, 21.2999039,
          9.23138142, 18.6899185, 26.8605499, 77.0137558, 52.197979,
          7.11530495, 43.2260208, 5.71136856, 3.48626065, 0.568500221,
          0., 0., 0., 0., 0., 0., 0., 0., 0., 0., 0., 0., 0., 0., 0., 0.,
          0., 67.7890472, 44.4354897, 32.2958565, 73.2268982, 25.7068119,
          19.2672405, 50.0760689, 47.7906227, 7.2645669, 9.47446918,
          109.986252, 49.4699478, 24.6808777, 53.2259254, 32.4763031, 0.,
          47.2336235, 20.3479977, 8.27911854, 0.098427698, 8.217062,
          5.84610939, 26.023428, 140.613205, 0.0722787827, 0.0332754888,
          0.0423398539, 0.0984275863, 6.03408623, 15.6546097, 88.7288666,
          0. ]
      - [ 0., 0., 0., 0., 0., 0.00554589322, 0.722559333, 57.7965469,
          25.034296, 1.73659241, 0.0124009186, 0., 0., 0., 0., 0., 0.,
          0., 0., 0.0156862736, 0.0248018373, 14.616889, 8.64152718,
          0.0356824622, 0., 0., 0., 0., 0., 0., 0., 0., 129.807663,
          49.6802826, 5.97988081, 11.5153503, 5.36267996, 6.79588413,
          7.95247269, 18.8216496, 87.4349213, 32.3957596, 12.3327389,
          24.4057884, 25.2572021, 25.1795998, 12.3352146, 0., 71.2725754,
          20.6562729, 19.2893734, 8.26207352, 16.1548843, 5.03236818,
          10.560936, 98.527916, 0.587068141, 0.290150791, 0.012401145,
          0.0235295296, 0.01240109, 0.17294991, 35.8679504, 0. ]
      - [ 40.8489265, 47.041851, 53.5824051, 80.2091217, 27.8223076,
          19.2348976, 20.3853722, 42.7381821, 61.4539909, 70.34758,
          99.2767639, 34.8078232, 11.5676785, 6.46855688, 10.4062805, 0.,
          117.397972, 86.2358017, 0.227291867, 0.0993931144,
          0.0299389325, 0.0998265818, 0.0703430548, 38.5072784,
          218.647675, 22.3754826, 3.86076093, 4.0786581, 7.41775227,
          9.24929237, 8.63858509, 0., 38.10812, 93.0455627, 0.54541719,
          11.0442295, 18.4779835, 10.5051355, 20.0966282, 36.0804482,
          26.9140797, 10.1699982, 29.0272446, 38.5012207, 31.8379784,
          39.3587494, 23.0672779, 0., 16.6746635, 45.3307419,
          0.300243467, 0.0156862736, 0.0124009186, 0., 0., 0.,
          0.0175377876, 0., 0., 0.00784313865, 0., 0., 0., 0. ]
      - [ 0., 0., 0., 0., 0.0124013703, 0., 0.0423399806, 22.8400078,
          33.0233688, 3.41180587, 0.042339623, 0., 0., 0., 0., 0., 0.,
          0.00554606179, 0.0299387053, 0.00784301758, 0.0372027569,
          9.83063793, 19.0457058, 23.8594437, 0.0299388021, 0.0388214216,
          0.0175377876, 0., 0., 0., 0., 0., 89.2296524, 61.8405342,
          11.0157957, 38.4965897, 14.8431168, 16.699831, 8.54582882,
          3.0200491, 46.8802452, 89.0649338, 22.9737797, 56.9873428,
          31.0146885, 30.0907135, 8.06093025, 0., 134.687714, 102.894783,
          43.2832794, 36.7151794, 24.5754089, 10.8044424, 13.0848446,
          76.0005112, 106.150154, 41.4658318, 15.5049896, 22.5336304,
          6.95209837, 11.2185106, 26.5729427, 0. ]
      - [ 0.0199961551, 55.4319077, 1.2829206, 42.2242165, 19.0156422,
          9.31511116, 7.52418709, 23.407177, 27.4255924, 105.53157,
          2.78620338, 14.7333689, 3.10029769, 4.60352468, 2.13756442, 0.,
          28.6674786, 100.638405, 0.143445656, 0.0637106299,
          0.0447982177, 0.078875117, 0.100178793, 16.1384544, 177.626877,
          17.7872562, 0.116944909, 0.0834084302, 0.0248022899,
          0.0230836272, 16.2842121, 0., 44.5011215, 172.769135,
          76.2599182, 44.0339737, 8.2298708, 4.78859282, 4.84295416,
          21.8353901, 43.6865768, 179.722427, 31.7683449, 37.5246582,
          29.6790447, 20.4417744, 27.7127037, 0., 75.9755478, 61.110836,
          0.188180387, 0.0478354432, 0.0323974192, 0., 0.0124010695,
          0.0478354208, 67.7285004, 4.69498301, 0., 0.007843256, 0.,
          0.0166378487, 0.0696004927, 0. ]
      - [ 136.131592, 44.6553802, 2.48191261, 6.13264418, 0.0798739716,
          16.7590675, 25.2088928, 80.3630676, 149.641739, 42.212616,
          19.2268505, 8.13413906, 23.4594421, 37.8026505, 11.4995718, 0.,
          157.113022, 13.8285017, 15.1451941, 22.1565285, 12.5479774,
          19.4493752, 21.034483, 118.441193, 18.7842903, 0.773793817, 0.,
          0.00784313679, 0., 0.0785427541, 0.0496042781, 0., 43.6892662,
          4.68306828, 0., 0.0156860352, 0., 0., 0., 0., 0., 0., 0.,
          0.067054674, 5.44809628, 6.86121321, 4.7999568, 0.,
          0.0124010695, 0.00554589322, 0.0124009186, 0.00784301758, 0.,
          0., 0., 0., 0., 0., 0., 0., 0., 0.0110917864, 0.0124010695, 0. ]
      - [ 50.0349655, 62.8490524, 8.27929974, 11.9423199, 0.636503279,
          14.0487604, 30.9210949, 57.2593193, 75.8033371, 75.514389,
          21.3985081, 10.881216, 14.3930492, 27.7005024, 19.5282135, 0.,
          0.998817444, 8.38107586, 20.9585342, 10.7661409, 19.944973,
          17.1907749, 12.1262503, 88.4133759, 15.1443653, 0.428435653,
          0., 0.0784312636, 0., 0.0166376792, 0.0632333979, 0.,
          75.7199402, 6.68232775, 0., 0.0589541085, 0.06769678,
          1.99657845, 2.93232656, 8.41471195, 4.38666296, 21.0523014,
          0.225775316, 12.5813093, 5.16863585, 9.17953491, 7.95221376,
          0., 103.271927, 9.50009155, 3.73668146, 0., 0., 0., 0., 0.,
          0.596542716, 0.155385196, 0., 0., 0.0124009186, 0.00554589322,
          0.0124010695, 0. ]
      - [ 72.4595947, 14.5164385, 10.247715, 23.611536, 68.2587814,
          32.9734726, 30.9838581, 68.9632568, 59.4429855, 21.7405396,
          24.1755638, 57.8801155, 29.7659092, 35.9813766, 25.8055916, 0.,
          71.806366, 72.839859, 6.61485195, 8.02599049, 2.09079671,
          4.8273406, 6.37692499, 41.3598518, 133.271362, 10.7484264,
          0.04479862, 0., 0.0175377876, 0.0175378416, 0.114843473, 0.,
          6.7363677, 1.45083213, 0., 0., 0., 0., 0., 0., 0., 0., 0., 0.,
          0.0298658293, 12.0763407, 41.3684654, 0., 44.122776,
          3.30250263, 0., 0.0313725471, 0., 0., 0., 0., 0., 0., 0., 0.,
          0., 0.00554606179, 0.0601269118, 0. ]
      - [ 0., 0., 0., 0., 0.0175377876, 1.57008207, 2.90355325,
          11.2957973, 4.0146718, 0.333520174, 0.059877865, 0.0156862736,
          0., 0., 0., 0., 0., 0., 0., 0., 0., 0., 0., 0., 0., 0., 0., 0.,
          0., 0., 0., 0., 70.0951767, 27.872488, 9.32842636, 92.2144241,
          33.3611603, 32.859623, 13.6097059, 101.26458, 26.191885,
          21.8429146, 60.226902, 68.148056, 28.0875778, 50.8542747,
          62.6875343, 0., 89.7394791, 16.0402012, 5.68431282, 0.,
          8.17805386, 5.54941511, 10.1391802, 114.132332, 28.0220203,
          0.546170413, 0.0772503242, 0., 0.0392156877, 1.22083473,
          51.5082588, 0. ]
      - [ 0., 0., 0., 0., 0., 0., 0., 0., 0., 0., 0., 0., 0., 0., 0., 0.,
          0., 0., 0., 0., 0., 0., 0., 0., 0., 0., 0., 0., 0., 0., 0., 0.,
          145.065399, 32.4711037, 54.6316261, 71.4294205, 17.1611404,
          25.4410439, 29.8493481, 109.953873, 83.9597778, 40.5610504,
          68.930809, 45.1044998, 25.2127686, 39.6863823, 40.2572479, 0.,
          150.846634, 20.4203815, 6.18326378, 3.1463654, 2.93163371,
          6.2279582, 11.3721657, 89.5701904, 64.6861725, 2.78640413,
          0.0299387053, 0.0235290527, 0.0124009186, 0.0499134623,
          0.0525318384, 0. ]
      - [ 35.3669777, 15.7208309, 11.3121357, 44.6807289, 23.7901726,
          20.3693142, 12.9177399, 51.7433128, 41.6674843, 28.6389656,
          19.8129845, 32.0665245, 15.6538458, 13.0674381, 10.9960451, 0.,
          0., 0., 0., 0., 0., 0., 0., 0., 0., 0., 0., 0., 0., 0., 0., 0.,
          55.9163361, 39.4713631, 18.5814686, 13.4513788, 4.12596703,
          5.406178, 16.9181004, 79.2428894, 14.0052958, 14.7873516,
          28.2397003, 14.6972008, 12.0344763, 12.5998144, 78.0426941, 0.,
          33.2196732, 6.31438541, 1.6990577, 0.00784301758, 5.19009352,
          2.69164586, 67.1746292, 88.7763748, 3.46298075, 0.0221837424,
          0., 0.0235295296, 0.0667820424, 12.7095585, 111.910095, 0. ]
      - [ 20.8385334, 42.2695847, 12.4129925, 0.364728928, 8.13026047,
          8.51894379, 0.0670387968, 0.126157179, 66.4131012, 24.1456909,
          15.8450727, 15.2357197, 8.51268196, 0.388257265, 0., 0.,
          33.6496658, 16.7047024, 36.6830444, 33.9615822, 8.06754303,
          10.4410419, 16.0812302, 42.7949409, 12.6740084, 43.98246,
          24.0056744, 2.43916559, 5.18095779, 4.51225233, 7.62887526, 0.,
          28.850769, 6.49688625, 0.0248020627, 0.0355112515, 0.,
          6.34350586, 23.7254391, 10.0938091, 6.71267462, 35.8028946,
          7.91351652, 9.35371971, 19.3340282, 29.4933681, 25.6604195, 0.,
          124.950928, 44.8401985, 32.0774231, 8.38307095, 5.27739906,
          7.47694826, 8.92969322, 107.302048, 16.9103622, 27.9941483, 0.,
          0.0156862754, 5.89659452, 10.6085844, 5.68244886, 0. ]
      - [ 16.6006298, 32.91959, 22.9143009, 44.0605621, 19.6078568,
          18.1785336, 7.10112238, 22.7499008, 23.6651096, 27.8130665,
          41.2962227, 50.9953461, 34.8633728, 22.060173, 4.28174353, 0.,
          75.6265106, 20.8233795, 9.08694839, 30.0152645, 8.93803501,
          6.54185915, 2.49138761, 33.1955109, 79.5724335, 3.24295449,
          0.0175377876, 0.0235295296, 0.0175377876, 0.0499133766,
          23.1403427, 0., 0., 0., 0., 0., 0., 0., 0., 0., 0., 0., 0., 0.,
          0., 0., 0., 0., 0., 0., 0., 0., 0., 0., 0., 0., 0., 0., 0., 0.,
          0., 0., 0., 0. ]
      - [ 1.07438099, 5.7011919, 0.0530807674, 0.00784301758, 15.2188911,
          17.8657074, 10.2160044, 15.5220985, 24.9395847, 29.6417255,
          0.0248022899, 0.00784301758, 3.23439336, 0.998581111,
          3.32767677, 0., 8.08065033, 4.07122755, 1.94533074, 2.60698819,
          3.33175898, 2.05302596, 6.49757338, 11.7382755, 34.1845856,
          3.9983604, 0.0774154142, 0., 0., 0., 0., 0., 54.8709908,
          39.044075, 9.55535984, 62.6063995, 6.86631823, 11.8410196,
          9.00192738, 100.786018, 3.93819094, 17.131218, 40.6014519,
          50.0765991, 25.1851082, 16.3901386, 100.569443, 0., 122.268822,
          78.6812744, 0.315687329, 0.090584442, 0.0124013703,
          0.102401495, 0., 51.4095078, 97.9878845, 3.63922143,
          0.0299389176, 0., 0., 0.0175378416, 0.145165622, 0. ]
      - [ 132.636642, 90.7683945, 28.8450432, 73.2039261, 26.0616989,
          22.6120968, 34.8944206, 59.8900757, 159.654053, 50.8248177,
          25.3630047, 74.0567551, 41.6390228, 24.9096775, 29.1736431, 0.,
          137.652878, 21.543829, 8.8417387, 0.0435255021, 8.24951458,
          5.40433168, 6.81816339, 83.5065994, 63.4312019, 1.93948889,
          0.029865779, 0.0156860352, 0., 0.0221835729, 0.0124010695, 0.,
          2.62639976, 1.83540189, 0., 0., 0., 0., 0., 0., 0., 0., 0.,
          0.00784301758, 0.0248018373, 1.59121048, 2.54630065, 0., 0.,
          0., 0., 0., 0., 0., 0., 0., 0., 0., 0., 0., 0., 0., 0., 0. ]
      - [ 31.1762924, 42.0888443, 14.4512148, 0.0156862736, 0.0175377876,
          0.00554589322, 0.012401145, 19.6502724, 38.2572174, 46.3119659,
          20.130682, 0.0910803378, 0.0620052703, 0.011091955,
          0.0601268783, 0., 0.00784313679, 0.427432865, 5.71862793,
          29.7370033, 14.9289465, 17.9750957, 20.423708, 15.3564711, 0.,
          1.87364793, 15.8995638, 128.939041, 7.28882694, 11.8297596,
          10.2741137, 0., 47.4563942, 39.4710312, 17.5089378, 16.4842682,
          11.7820253, 11.7119398, 15.5650072, 30.2873688, 14.3828716,
          65.3239136, 8.38579845, 44.218174, 18.5445118, 17.0651302,
          29.0995369, 0., 129.76622, 43.9099236, 37.5506248, 8.15058041,
          1.46310472, 8.99849796, 14.0077724, 103.221069, 33.777916,
          26.7305241, 0.0199961569, 113.972939, 0.0528053381,
          0.0459501334, 15.9745159, 0. ]
      - [ 21.3801537, 63.8079643, 37.092926, 48.8772316, 8.84546947,
          17.6297722, 6.51094627, 34.0612373, 56.7443237, 77.2755127,
          48.4125328, 15.0446444, 3.39013648, 5.05690622, 2.48121595, 0.,
          27.9875546, 47.3793411, 4.36627531, 7.79320717, 0.0620050468,
          10.481967, 4.08290482, 26.2154713, 89.9170151, 10.7460051,
          0.0423398502, 0.0627448559, 0.0248020086, 0.0388214216,
          0.024802139, 0., 69.8267136, 81.5064468, 54.8199768,
          85.3852615, 16.2531853, 10.5526276, 12.2972059, 10.6279745,
          112.495415, 67.656723, 49.7495956, 39.6741867, 47.6915588,
          35.4418678, 45.1370506, 0., 2.76076818, 151.065842,
          0.114810407, 0.0313725471, 0.012401145, 0., 0., 0.0790805072,
          79.0339661, 9.86787033, 0.0175377876, 0.0235295296,
          0.0124009186, 0.016637722, 0.044798281, 0. ]
      - [ 110.392876, 111.528236, 28.340517, 22.5067463, 11.2159243,
          18.070406, 12.7748384, 81.8159332, 149.165085, 85.7787628,
          34.4853706, 11.4504461, 8.79942322, 4.43988228, 9.67307377, 0.,
          64.2865219, 7.40648699, 2.24195647, 7.78656197, 0., 10.5274496,
          18.2516079, 109.740242, 1.1986022, 0., 0., 0.0156862736, 0.,
          2.33447289, 61.3991966, 0., 53.4238434, 2.06155801,
          0.0957746059, 0.00784301758, 0., 0., 0., 0., 0., 0., 0.,
          0.0235290527, 4.13593006, 5.74088287, 18.8309975, 0.,
          0.0875472352, 0.0341754146, 0., 0.0435253866, 0., 0., 0., 0.,
          0., 0., 0., 0.0156862736, 0.0124009186, 0.0452673063,
          0.044798281, 0. ]
      - [ 23.6768932, 4.74217033, 13.4287395, 13.4586449, 30.5098591,
          16.1768246, 15.2690678, 27.2835732, 20.1189079, 7.50970173,
          19.166008, 21.9151268, 15.8709364, 15.0322695, 9.08843613, 0.,
          0., 6.6517725, 4.67216253, 1.26332438, 3.00270295, 0.837454855,
          5.64090347, 37.2175217, 29.3990059, 0.894071043, 0., 0., 0.,
          0., 0., 0., 61.6711502, 2.17802835, 0.799634457, 6.63095427,
          2.89309192, 4.50362253, 2.99370599, 37.4240837, 20.7967987,
          0.0110917864, 7.49478245, 15.2565136, 2.04439092, 8.58212757,
          18.5000496, 0., 43.5030441, 24.067503, 0.150150448,
          0.0156862736, 0., 0., 0., 5.75872421, 8.37866783, 0., 0., 0.,
          0., 1.43074489, 14.978385, 0. ]
      - [ 12.6330557, 15.1190767, 8.38483238, 33.196209, 29.0876751,
          10.4552908, 12.1761141, 64.3764725, 24.3636608, 41.6625595,
          20.1777592, 20.2461357, 9.63634014, 4.83312511, 9.56750679, 0.,
          3.50445652, 0., 1.95517719, 2.79684806, 0.0124009186,
          2.93031311, 5.16279316, 57.1212196, 0.723426938, 0.0499133728,
          0., 0., 0., 0., 2.669698, 0., 151.002411, 39.7889442,
          8.32450485, 7.95170832, 13.0126963, 5.78046894, 11.1007156,
          95.1217346, 27.37957, 7.96206951, 7.98122025, 16.2302952,
          19.5608482, 25.4026604, 29.5774879, 0., 50.4139824, 3.99768949,
          0.0175377876, 0.0235295296, 0., 0., 0., 0., 0., 0., 0., 0., 0.,
          0.0221837424, 4.00824881, 0. ]
      - [ 53.3080406, 26.8952847, 0.173712999, 0., 0.0124009186,
          0.0110917864, 0.0423398726, 34.391243, 45.9000244, 41.0371552,
          0.0895963237, 0.0513686389, 0., 0., 0., 0., 7.98922586,
          0.443710327, 0.0175377876, 15.7789516, 16.5179996, 17.620821,
          8.24925518, 38.7850418, 0.0175377335, 0.172782183, 8.04223537,
          7.97229862, 4.02446365, 9.24954033, 16.0279179, 0., 55.5286179,
          24.5984669, 19.1088848, 18.9555454, 11.091732, 11.9865427,
          16.5671978, 10.819581, 15.6282024, 59.6266518, 35.0430603,
          21.6185284, 18.7767982, 33.1648102, 10.1192713, 0., 147.226563,
          38.8076363, 45.7966766, 9.92288017, 7.93507624, 13.3048868,
          15.0429201, 122.727867, 14.5984468, 41.3045921, 13.4217834,
          5.27267933, 6.02731228, 7.32444096, 15.857811, 0. ]
      - [ 33.4252815, 18.1961594, 15.5115137, 31.0720024, 11.3705997,
          63.3717766, 71.1343765, 94.6256485, 19.800909, 43.2081184,
          50.7577095, 65.0467224, 33.4214478, 40.0910835, 71.7649536, 0.,
          54.7556534, 6.14863443, 1.45281827, 32.3556404, 37.5114746,
          12.0663691, 23.2770481, 138.609924, 69.6446228, 1.74613738,
          0.0746641681, 0.0392154455, 0.0124009186, 6.3646059,
          16.2143097, 0., 34.0198708, 12.172368, 7.12451124, 7.52805185,
          8.09267521, 2.12856984, 0., 0.0277296789, 0.0474035144,
          22.2785454, 7.753304, 7.76475286, 14.0401525, 22.2595444,
          33.0176888, 0., 158.903275, 9.77591324, 0.012401145,
          0.0590011775, 0.0124009186, 0., 1.69051909, 8.89099598,
          1.45313048, 0.836249292, 0., 0., 0.012401145, 1.04368591,
          5.85578394, 0. ]
      - [ 162.105133, 60.9040375, 7.69067287, 7.74201155, 6.90133858,
          18.7502747, 3.68489933, 87.8489532, 159.963577, 32.235939,
          10.4914255, 28.5550213, 23.9298801, 23.5455284, 24.809536, 0.,
          113.798897, 67.2719345, 26.1965008, 8.16535759, 15.3910532,
          14.5913258, 29.7929249, 129.995193, 22.6436234, 2.43216825,
          3.13551497, 5.50364113, 8.99923229, 3.3138113, 10.8785868, 0.,
          0.38891831, 0.228331476, 0.0620053932, 0., 0., 0., 0., 0., 0.,
          0., 0., 0., 0.0124009186, 0.255199432, 0.344740599, 0.,
          0.0235294104, 0.0443673134, 0., 0., 0., 0., 0., 0., 0., 0., 0.,
          0.00784301758, 0., 0.0221837424, 0.024802139, 0. ]
      - [ 0., 9.59945774, 18.9306622, 5.45235825, 26.047121, 14.5236568,
          6.83248472, 7.57822657, 15.062624, 25.8601055, 15.414958,
          15.6425238, 8.58810711, 2.61883688, 3.73356819, 0.,
          0.0280874185, 3.94426775, 2.87190008, 0.764962256, 2.69751692,
          0.566265106, 5.05604076, 19.1253128, 25.2693481, 1.04363608,
          0.0299387053, 0.0392158031, 0., 0., 1.67506528, 0., 49.8588448,
          14.2233858, 0.244148195, 31.0590286, 45.7382469, 25.124918,
          10.4628153, 36.0303764, 34.9656448, 2.53399515, 0.671149194,
          57.8677063, 41.6050797, 23.2129116, 43.3187866, 0., 79.1296997,
          18.1788788, 0.0744059607, 0.0323380828, 0., 0.011091955,
          1.53068817, 27.9935493, 29.3740845, 0.499257386, 0.,
          0.0930198431, 0., 0.0230836272, 7.54719353, 0. ]
      - [ 0., 28.3325901, 13.9657831, 39.287014, 6.45688343, 6.37397242,
          7.09764099, 0.0784313679, 19.1570148, 45.8908501, 16.5618324,
          17.5376492, 5.07385302, 1.4531635, 3.27220082, 0., 0.,
          9.61902142, 2.07561016, 0.0549020767, 5.93786812, 1.66395438,
          3.28832078, 44.9060211, 27.4161396, 1.03642321, 0.0372027569,
          0.0156862736, 0.0299387053, 3.06163144, 0., 0., 82.3336258,
          6.30734777, 18.4839993, 8.48689079, 2.8832252, 13.0872517,
          8.98741436, 78.5827332, 13.9472227, 5.29385281, 20.6608257,
          9.6795187, 10.4358387, 20.9220963, 28.0076942, 0., 75.5991974,
          12.5712242, 0.0175377876, 0.0235295296, 0., 0., 0., 19.9587097,
          18.218914, 0., 0., 0., 0., 0., 20.3749733, 0. ]
      - [ 25.8365345, 22.8279591, 0.0754392743, 0.00784301758,
          8.10659122, 17.2631416, 18.1681976, 35.1871834, 38.9632912,
          38.2990685, 0.0299389325, 7.37538004, 7.10811853, 3.23910022,
          15.316884, 0., 0., 0.033275526, 0., 0.0156862736, 18.3718605,
          1.25351965, 0.0175377335, 0.0235294104, 0., 0., 0., 0., 0., 0.,
          0., 0., 40.4027977, 5.23459101, 33.9030037, 38.1565857,
          14.1949329, 14.6124439, 49.2885971, 16.8502979, 3.55078936,
          22.1444035, 62.3535194, 49.985569, 29.5976734, 44.8244705,
          54.7989616, 0., 54.1283569, 9.08100319, 11.0824661, 44.6591568,
          9.1398983, 18.3803349, 67.8998489, 94.6930008, 0.503998399,
          0.0776425079, 0., 0.00784301758, 0.0600696132, 49.071804,
          67.7403412, 0. ]
      - [ 0., 0., 0., 0., 0., 0., 0., 0., 0., 0., 0., 0., 0., 0., 0., 0.,
          0., 0., 0., 0., 0., 0., 0., 0., 0., 0., 0., 0., 0., 0., 0., 0.,
          139.931412, 15.18787, 7.86930609, 10.4931679, 8.74952602,
          14.2261114, 25.0771618, 132.861694, 90.3266907, 20.9699459,
          18.6160755, 32.7171364, 18.8602486, 26.0476723, 86.5210571, 0.,
          90.7837524, 35.5209084, 17.112896, 9.70101738, 9.76236248,
          12.4897013, 28.4808292, 100.534172, 7.09808254, 1.22975159,
          0.0124013703, 2.0166707, 0.0124009186, 1.81327915, 15.5181923,
          0. ]
      - [ 0., 0.00554589322, 0., 0.0156860352, 0.012401145, 2.09286761,
          12.6749535, 20.2065849, 8.95678425, 0.649761856, 0.012401145,
          0.00784301758, 0., 0.0221835729, 0., 0., 0., 0., 0., 0., 0.,
          0., 0., 0., 0., 0., 0., 0., 0., 0., 0., 0., 52.8927879,
          44.2407913, 8.89733601, 18.2630405, 79.1932526, 47.5129814,
          56.5318947, 20.5577793, 45.8715019, 36.6266251, 16.6058578,
          53.2002792, 70.3496628, 63.0624657, 60.3142281, 0., 90.10923,
          119.973236, 8.13587475, 0.0905842036, 7.77518272, 8.65402222,
          2.68736362, 27.1125507, 159.676514, 16.1373901, 0.,
          0.0392155647, 0.012401145, 0.119164325, 0.0820014924, 0. ]
      - [ 41.746891, 1.77894318, 0., 0., 0.0175377876, 0.0443673134,
          0.024802139, 41.871582, 63.1120186, 3.51002669, 0.0820013732,
          0.0156862736, 0., 0., 19.9295158, 0., 0., 0.00554589322,
          0.0248018373, 0.0156860352, 15.4589386, 8.85784912, 20.0767479,
          6.74457073, 0., 0.0166378487, 0., 0., 4.60830688, 5.74777651,
          3.25478864, 0., 61.2498474, 50.8726883, 10.0911779, 17.1160145,
          13.7763681, 23.2309265, 23.1753941, 12.5733442, 71.0020142,
          33.5623322, 23.511488, 23.4194508, 26.4462719, 42.7748756,
          26.6915894, 0., 88.4577866, 13.2094793, 16.836298, 24.1285229,
          7.56969118, 11.1512785, 22.9074497, 67.7834778, 13.6797228,
          10.1743174, 7.95487976, 0., 8.84530163, 10.1178761, 26.4810181,
          0. ]
      - [ 0., 0.011091955, 0., 0., 0.0124009186, 0.02218391,
          0.0423399806, 15.51161, 3.96583509, 0.499134243, 0.0277297348,
          0., 0.0248022899, 0.0175377335, 0., 0., 0., 0., 0., 0.,
          0.0175377876, 0.650610685, 6.86306477, 23.6678181,
          0.0498758405, 0.0166378487, 0., 0., 0., 0., 0., 0., 107.767914,
          53.373539, 16.6980515, 11.1752825, 8.27896214, 15.7242851,
          6.53456736, 25.0650234, 119.228035, 55.8035889, 15.6199627,
          26.5222378, 25.6119328, 28.3670788, 20.443943, 0., 190.004166,
          79.0872574, 32.8076553, 11.9682913, 15.3496647, 25.3235245,
          12.6197882, 180.52916, 37.8482018, 30.6081314, 5.34780741,
          5.33334303, 10.7671747, 8.5822506, 20.1345749, 0. ]
      - [ 45.9414673, 36.532177, 0.0299387053, 24.1741962, 17.7645473,
          17.6774616, 9.25585175, 58.9605064, 43.4262466, 51.1186752,
          12.7260752, 6.89238882, 7.21903229, 6.20292759, 15.4594011, 0.,
          0., 0., 0., 0., 0., 0., 0., 0., 0., 0., 0., 0., 0., 0., 0., 0.,
          155.239639, 17.9336185, 63.2125931, 34.685257, 6.01651096,
          7.8601532, 7.1355958, 91.8459625, 39.6777191, 50.0545464,
          45.5073166, 31.5111771, 14.3353348, 25.8088493, 28.4680176, 0.,
          102.410759, 15.8151808, 6.25200272, 2.34911132, 6.22046137,
          7.41338921, 11.6891155, 98.9034424, 33.1291847, 0.676834762,
          0., 0.0156860352, 0., 0.0221835729, 32.3791618, 0. ]
      - [ 0., 0., 0., 0., 0., 0., 0., 0., 0., 0., 0., 0., 0., 0., 0., 0.,
          0., 0., 0., 0., 0., 0., 0., 0., 0., 0., 0., 0., 0., 0., 0., 0.,
          116.377647, 41.6247635, 17.5261745, 85.6644058, 33.0978012,
          37.1249847, 12.8124828, 43.6969261, 134.46286, 30.2081032,
          42.5590553, 63.9005318, 52.0129051, 27.5831757, 40.1538773, 0.,
          127.638336, 34.0161667, 3.81225872, 8.13383865, 1.73379982,
          7.28792381, 7.99155807, 58.010334, 88.0278778, 5.13073158,
          0.0671419129, 0.007843256, 0.0124009186, 0.0110918293,
          0.0124010695, 0. ]
      - [ 48.6187592, 59.7151413, 36.1137428, 23.3837414, 15.4908295,
          8.52932835, 10.14993, 54.5670815, 57.9568024, 81.6224976,
          25.0923195, 6.60743618, 5.56282949, 3.40097165, 8.3921051, 0.,
          0., 0., 0., 0., 0., 0., 0., 0., 0., 0., 0., 0., 0., 0., 0., 0.,
          176.404465, 75.0874252, 22.2512589, 26.395853, 7.23701382,
          1.71927631, 7.15397549, 98.4411469, 107.232895, 12.4211702,
          21.8514957, 48.8948326, 7.5029211, 8.09619236, 15.9819717, 0.,
          121.329178, 22.8596134, 7.3503232, 3.63392711, 7.16811609,
          5.38747168, 7.52749109, 143.383087, 5.17494154, 3.69983292,
          2.57467604, 3.6836102, 3.08210826, 9.87085819, 12.0628023, 0. ]
      - [ 18.7198944, 19.3413315, 43.8847618, 76.9913483, 57.5867805,
          28.3274975, 52.1083221, 44.1440315, 45.7847404, 34.3484497,
          79.3760223, 59.2186203, 31.5434723, 29.1529503, 24.5462723, 0.,
          2.6739409, 0.157122016, 0., 0.00784301758, 0.0323972404,
          10.8437347, 37.1190224, 83.3280029, 44.9166183, 1.89968443,
          0.0372032076, 0.00784301758, 0.0124009186, 0.160832003,
          1.83017147, 0., 81.062027, 12.0916557, 1.56472468, 19.7405605,
          1.38417685, 3.17354012, 3.63480616, 24.9591732, 52.3233147,
          4.28918409, 0., 22.6205406, 7.02090502, 20.7401905, 59.2815132,
          0., 98.5598602, 15.9163866, 8.24279881, 0.0792075694,
          8.01835918, 0.693264306, 0., 3.30731726, 2.69148016,
          0.133563817, 0., 0., 0.263849169, 19.2771912, 44.4434242, 0. ]
      - [ 59.9906769, 63.7568855, 65.1234207, 39.6541634, 35.2044792,
          36.0233078, 24.6914196, 98.1062698, 134.491776, 92.3565369,
          17.6321678, 15.9731627, 8.45881271, 9.64088345, 14.5926313, 0.,
          60.9514008, 89.6272583, 3.35233808, 8.02417755, 7.46844912,
          13.4708147, 13.2149858, 7.35003901, 122.686516, 12.5817842,
          0.177285492, 0.0470585823, 0., 3.13178992, 14.1627178, 0.,
          103.725197, 20.7159081, 2.31449652, 9.21584606, 1.6351577,
          13.1029472, 18.1954517, 34.7154694, 2.00300431, 4.67339325, 0.,
          4.77286148, 1.20612013, 25.6594849, 93.0070801, 0.,
          0.0591022484, 0.0503722504, 0.022866426, 0.00784301758, 0., 0.,
          0., 0., 0., 0., 0., 0., 0., 0.00554589322, 0., 0. ]
      - [ 11.6417208, 32.9779167, 13.999217, 38.8704681, 21.1849041,
          13.4345779, 30.3901482, 31.9587135, 37.0442162, 19.4343777,
          17.4573135, 39.9351234, 17.0339565, 22.2130108, 45.3191795, 0.,
          35.4803505, 2.14411497, 2.09593058, 2.86202765, 0.042339623,
          3.2172215, 5.91722584, 68.6310883, 1.14128911, 0.4658584,
          0.0199960954, 0.00784301758, 0., 0., 14.598568, 0.,
          0.0797040984, 0.0175378416, 0.0175379999, 0., 0., 0., 0., 0.,
          0., 0., 0., 0.0277297348, 0., 0.40098393, 5.23698235, 0.,
          14.6989565, 1.02651525, 0., 0., 0., 0., 0., 0., 0., 0., 0., 0.,
          0., 0.00554589322, 8.88933372, 0. ]
      - [ 0., 0., 0., 0., 0., 0.0332753584, 0.024802139, 0.0313725471,
          0., 0.0166376792, 0., 0.00784301758, 0., 0.0166376792, 0., 0.,
          0., 0., 0., 0., 0., 0., 0., 0., 0., 0., 0., 0., 0., 0., 0., 0.,
          191.937408, 81.5095673, 75.0372162, 76.8794632, 31.8994942,
          28.2609596, 42.0188828, 132.869873, 113.234261, 89.1340256,
          76.8144531, 69.3200607, 35.7404404, 28.6485806, 48.154068, 0.,
          111.106697, 12.4309244, 3.2452836, 0.0627450943, 9.91486835,
          7.97985029, 10.3738489, 104.547867, 22.985651, 0.363098294, 0.,
          0.0156862736, 0.0984301195, 2.18436933, 22.185564, 0. ]
      - [ 46.9427414, 6.06707859, 0., 0.0235290527, 14.359498,
          18.5359135, 9.08247185, 71.0986938, 40.7172356, 18.3536186,
          0.0774154365, 0.0434162468, 3.53707385, 5.60210943, 10.9758673,
          0., 0., 0., 0., 0., 0., 0., 0., 0., 0., 0., 0., 0., 0., 0., 0.,
          0., 102.973579, 31.0526333, 33.0668221, 75.0919342, 44.3418655,
          8.75860214, 6.61867857, 96.2947845, 31.8173828, 24.070652,
          52.8011742, 70.3853836, 48.7837143, 26.6420841, 57.3356972, 0.,
          105.993958, 113.042778, 6.09636164, 8.07106972, 0.0175377876,
          6.25149584, 9.45794582, 52.4231682, 143.499908, 12.0987234,
          0.0620054975, 0.00784301758, 0.0423400775, 0.107721552,
          0.0124010695, 0. ]
      - [ 19.3314438, 25.4923725, 27.691473, 19.4003086, 33.9203186,
          34.3114738, 24.0286655, 18.4596443, 40.2980728, 43.9846306,
          15.0532484, 30.8882828, 30.2776699, 11.4667349, 7.97958803, 0.,
          0., 0., 0., 0., 0., 0., 0., 0., 0., 0., 0., 0., 0., 0., 0., 0.,
          7.28682709, 7.36755896, 3.11876202, 66.505043, 24.6210632,
          24.556036, 51.5157738, 46.5628624, 0.129155576, 0.793597579,
          24.342535, 72.3619461, 28.654108, 44.388546, 114.213753, 0.,
          19.2125435, 10.6160278, 4.75358391, 7.99215126, 0.0598044842,
          6.40520048, 8.12293243, 79.0682907, 0.0819424093, 0.0894711316,
          0., 0., 0., 0.944608927, 60.6950531, 0. ]
      - [ 38.7275009, 20.0950413, 19.2110424, 10.8474226, 35.7844696,
          21.7423286, 23.9990463, 78.1711731, 23.7880726, 27.0724468,
          32.2070923, 14.8891888, 14.2022896, 12.4719229, 29.8885384, 0.,
          0., 0.0332753584, 0.0124009186, 0.0199960954, 0.0474764928,
          0.0443671457, 0.0228663851, 0., 0., 0.0221837405, 0., 0.,
          0.022866426, 0., 0., 0., 124.210327, 7.91361904, 40.7570419,
          48.8465691, 11.7058525, 8.36795139, 13.5624924, 97.5889435,
          14.0487671, 38.4446144, 25.2997494, 41.8714638, 32.5463943,
          29.3223915, 34.3149948, 0., 210.863281, 8.17607403, 2.40654945,
          7.5871706, 3.10523367, 5.89869022, 3.69933391, 214.355804,
          1.15410554, 0.0110917864, 0.0323973, 0.0156861544, 0.042339623,
          0.0729966685, 4.57394552, 0. ]
      - [ 38.8465271, 65.7657318, 15.1412382, 20.2976418, 8.06149292,
          26.3399143, 8.76039505, 58.7808838, 58.357193, 119.742241,
          20.1870422, 18.7950535, 10.4611816, 34.6042976, 23.6626434, 0.,
          93.5667801, 57.4119797, 27.2907162, 31.3737793, 24.3438148,
          29.0595322, 26.7946949, 128.035141, 65.2317505, 18.0875912,
          16.4331303, 129.402496, 8.70534515, 12.6878529, 31.6016254, 0.,
          82.1725845, 9.01811886, 0., 0.0235292912, 0.0447983928,
          1.40189934, 2.40967536, 0.039992284, 14.2106037, 19.0595131,
          5.75176811, 0.035682369, 5.61845446, 12.0058784, 8.02929783,
          0., 55.3204269, 11.5784082, 3.70661044, 0.0712553561,
          3.71686602, 1.84741271, 6.68778801, 0.0313725471, 2.77456999,
          5.12823296, 2.66398382, 116.608833, 3.95864248, 1.43022668,
          2.98054528, 0. ]
      - [ 0., 0., 0., 0., 0., 0.0110917864, 0.0423399806, 22.9782181,
          2.94517303, 0.227674916, 0.0499352403, 0., 0., 0., 0., 0., 0.,
          0., 0., 0.0235292912, 0.0375341177, 0.293934345, 4.5362916,
          3.84197927, 0., 0.0166376792, 0., 0., 0., 0., 0., 0.,
          118.634819, 42.502533, 20.164011, 10.2130222, 18.6838684,
          29.5634174, 9.75566387, 33.5358086, 72.9274979, 90.62117,
          29.8664455, 16.6958523, 35.152462, 35.7642136, 27.362381, 0.,
          149.210022, 31.0314636, 41.0476036, 17.3814602, 37.0647354,
          27.8864803, 32.9635696, 134.538895, 18.3751221, 20.2041721,
          13.3054514, 15.7488279, 12.1221809, 14.6455545, 20.4160347, 0. ]
      - [ 73.0511475, 14.8267994, 21.2282848, 31.508215, 28.2115593,
          26.6984024, 29.5214157, 149.018692, 36.4930916, 40.3352242,
          26.3553505, 51.3198776, 14.6885452, 14.0476894, 41.9417267, 0.,
          0.00784313679, 0., 0.0124009186, 0.0156860352, 0.0124009186,
          3.26417851, 16.4473495, 89.1045303, 0., 0., 0., 0., 0., 0.,
          4.26018333, 0., 19.6669712, 8.32429886, 6.72507191, 3.69276357,
          7.75873327, 0., 4.11735678, 2.42810678, 2.8108387,
          0.0388212502, 0.0199960954, 0., 11.9641752, 12.1688795,
          81.8389664, 0., 8.04221344, 5.67524242, 7.26350784,
          0.229924589, 3.40567636, 4.11621857, 2.82868099, 0.0599884689,
          0., 0., 0., 0.00784301758, 0., 2.06258488, 90.586319, 0. ]
      - [ 20.2893963, 15.8149996, 25.5261879, 47.9538002, 11.0614662,
          11.5147171, 6.73422194, 35.5658913, 22.7749062, 12.8368616,
          42.2542267, 35.111969, 13.1730404, 7.42376757, 29.7840309, 0.,
          65.5981827, 19.0613441, 7.4832468, 7.88609314, 4.05312824,
          5.97590399, 3.81616211, 42.5724144, 56.3584595, 0.945886314,
          0.0248018373, 0.0235292912, 3.48454118, 8.88744259, 12.3507996,
          0., 0., 0., 0., 0., 0., 0., 0., 0., 0., 0., 0., 0., 0., 0., 0.,
          0., 0., 0., 0., 0., 0., 0., 0., 0., 0., 0., 0., 0., 0., 0., 0.,
          0. ]
      - [ 31.6781731, 31.1576061, 6.16690159, 0.0199963301, 0.0199960954,
          0.0554592684, 0., 25.5579453, 41.2757797, 36.4652977,
          8.74681568, 0.0670549124, 0.0298658293, 0.0284124017,
          7.95347071, 0., 0.00784313679, 0.310572296, 0.0299387053,
          15.6220503, 16.0031376, 17.9793568, 28.9407635, 3.01969242,
          0.0124010695, 0.00554606179, 5.25355864, 124.864098,
          5.83299303, 13.2594986, 6.95252371, 0., 48.9658966,
          0.910502732, 16.2437878, 10.0341053, 8.01402378, 15.2011671,
          4.06782866, 2.05236411, 35.8554115, 28.6213417, 9.86265373,
          29.9485531, 14.5129662, 23.1349792, 13.0973892, 0., 139.568741,
          43.9248047, 32.4886055, 12.6357851, 5.54267073, 10.1810322,
          14.2835207, 127.338791, 18.1765327, 27.7903767, 8.54611015,
          113.952942, 0.382822424, 11.6812296, 14.5019913, 0. ]
      - [ 66.6349945, 16.6587353, 0., 0.0235295296, 0.0124009186,
          0.0166376792, 0.024802139, 44.4683571, 70.2870941, 22.0566444,
          0.0248020627, 0.0470585898, 0.0175377876, 0.0166376792,
          7.83924961, 0., 0.0399923325, 0.0277296342, 0.0175377876,
          15.298811, 10.5695276, 21.5590897, 14.230526, 18.7671947,
          0.0447391793, 0.0221837852, 0., 7.98452616, 12.2416668,
          6.49960947, 10.9034853, 0., 75.9204025, 29.4465199, 5.29940271,
          9.01854897, 17.8586712, 34.0606194, 5.00954819, 5.17453671,
          47.7022858, 40.708622, 20.147625, 25.1919861, 28.1805477,
          32.5075569, 10.3746834, 0., 116.872147, 31.2232513, 37.7940445,
          24.0097466, 2.2248075, 9.11655426, 9.92947006, 116.830124,
          10.9799528, 23.1770782, 19.909359, 2.26146579, 7.30748606,
          5.9819932, 21.0911579, 0. ]
      - [ 187.403854, 28.8881588, 5.14119101, 10.3611431, 7.27269363,
          7.12301016, 29.060009, 132.621933, 134.791153, 26.4356384,
          11.3976412, 14.982255, 15.3599396, 47.0845222, 21.8545399, 0.,
          47.3552971, 9.89622307, 13.6323528, 23.3212624, 9.60845947,
          15.2376757, 6.45384264, 71.4597168, 1.62321603, 0.0110917864,
          2.1242094, 3.04436636, 5.15441322, 3.24880648, 22.1707745, 0.,
          5.58939981, 1.92662251, 2.41556549, 0.732084394, 3.14396977,
          6.35618448, 20.5886288, 0.00784313679, 0., 0.0166376792, 0.,
          0.00784301758, 0.012401145, 33.0440941, 18.1905231, 0., 0., 0.,
          0., 0., 0., 0., 0., 0., 0., 0., 0., 0., 0., 0., 0., 0. ]
      - [ 1.29339254, 0., 0., 0., 0., 8.32109165, 14.5139685, 19.4612103,
          25.1013622, 0.960047364, 0.0124009186, 0.0156862736, 0., 0.,
          1.61356223, 0., 0., 0., 0., 0., 0., 0., 0., 0., 0., 0., 0.,
          57.223526, 0., 0., 0., 0., 116.287399, 68.3859634, 35.7963753,
          46.1853447, 17.3984108, 7.00884914, 0.469912827, 22.9457607,
          95.6281662, 69.4237747, 28.8146267, 29.5755119, 21.2434902,
          11.5323677, 21.8215542, 0., 76.520195, 8.06023693, 5.84054613,
          0.0392153263, 2.14091063, 4.66730452, 6.27885294, 115.049469,
          0.0372032076, 0.0110917864, 0., 57.223526, 0.0350755751,
          7.19809341, 32.6534691, 0. ]
      - [ 40.8723946, 81.5977173, 106.15345, 31.523674, 19.3211002,
          13.426528, 11.3717384, 42.4238243, 75.3519363, 133.571411,
          62.7742424, 9.24977016, 0.961127818, 6.70127487, 5.28445959,
          0., 0., 0., 0., 0., 0., 0., 0., 0., 0., 0., 0., 0., 0., 0., 0.,
          0., 116.367111, 22.0238991, 52.6116486, 43.3383102, 15.8054075,
          6.10386848, 4.45596981, 123.376846, 23.4235229, 35.247139,
          47.6008568, 38.9337463, 8.30249786, 56.3298073, 46.0127182, 0.,
          124.085236, 7.17709732, 3.64198732, 1.53861022, 8.10960674,
          10.4240484, 54.0739136, 138.988861, 0.0299389102, 0.0221835729,
          0., 0.0392150879, 2.81487894, 30.0930099, 42.3334122, 0. ]
      - [ 7.33266163, 2.61624932, 0.0299387053, 0., 0.0248018373,
          28.3287888, 12.4376535, 34.380558, 28.398037, 16.3954048,
          0.0447981581, 0.0627447367, 0., 1.71018553, 3.21746969, 0., 0.,
          0., 0., 0., 0., 0., 0., 0., 0., 0., 0., 0., 0., 0., 0., 0.,
          33.493721, 49.3730011, 49.6475716, 83.2939835, 87.3182373,
          39.3877144, 24.2989826, 23.140955, 12.7343178, 37.9618378,
          54.6731567, 128.974533, 70.2563553, 46.308609, 55.2778587, 0.,
          116.809738, 56.5780029, 3.81422567, 8.03390598, 1.43589246,
          6.7472887, 7.8544426, 29.5598488, 124.990089, 8.65171909,
          0.0199960954, 0.0156860352, 0.0175377876, 0.0221836157,
          0.0447983555, 0. ]
      - [ 116.113632, 39.7392273, 38.1624107, 15.2666101, 17.9826736,
          9.97434235, 14.8036728, 73.0859604, 91.489212, 52.2408257,
          13.9092703, 19.9678001, 9.87693119, 15.9295683, 34.3932838, 0.,
          87.8090439, 10.3332033, 3.63073707, 1.97181833, 1.7913779,
          4.57302856, 6.1811595, 60.2796555, 31.2375298, 1.13380325,
          0.271418899, 57.231369, 0.0299389325, 0.0499130376, 2.08808398,
          0., 0., 0., 0., 0., 0., 0., 0., 0., 0., 0., 0., 0., 0., 0., 0.,
          0., 0., 0., 0., 0., 0., 0., 0., 0., 0., 0., 0., 57.223526, 0.,
          0., 0., 0. ]
      - [ 58.8268738, 23.738842, 1.44915044, 7.61242485, 17.459959,
          16.3713932, 27.1465626, 89.0281754, 27.8092728, 28.0786037,
          8.85479164, 7.65854454, 2.72343659, 5.87972403, 30.3657246, 0.,
          0., 0., 0., 0., 0., 0., 0., 0., 0., 0., 0., 0., 0., 0., 0., 0.,
          44.8634644, 42.3594322, 43.9366684, 47.7188225, 29.2360897,
          11.3013229, 30.8351154, 93.3083267, 42.5437279, 60.3722725,
          15.1497412, 59.0873795, 30.4545612, 24.6117096, 149.900681, 0.,
          11.7080755, 7.35844278, 2.26629281, 2.75825, 7.11154842,
          5.25608015, 27.4338417, 158.859894, 0.0372032076,
          0.00554589322, 0., 0.00784301758, 0.042339623, 2.44928265,
          170.496445, 0. ]
      - [ 0., 0., 0., 0.00784301758, 0.0498758703, 1.31520402,
          14.2504129, 21.0334949, 14.881649, 1.91100323, 0.0372032076,
          0., 0.0124009186, 0., 0., 0., 0., 0., 0., 0., 0., 0., 0., 0.,
          0., 0., 0., 0., 0., 0., 0., 0., 85.32621, 96.4128113,
          36.3225708, 109.814941, 34.9760628, 27.9412003, 15.1591711,
          44.188446, 79.1171799, 41.7816238, 77.6318817, 112.213852,
          26.5138721, 29.2112446, 26.7218018, 0., 63.3921738, 99.6133957,
          6.40728807, 2.16466737, 1.9044466, 7.7087779, 8.17045689,
          33.9837685, 106.019859, 8.37901974, 0.0827031061, 0.125490427,
          0.0124009186, 0.0175377335, 0.124835871, 0. ]
      - [ 12.5494843, 4.37484932, 0.012401145, 0.00784301758, 6.86781693,
          15.2447348, 7.84423685, 18.3741684, 30.031477, 8.21907234,
          0.0350755751, 0.359578788, 0., 4.1927309, 11.7247448, 0.,
          2.1565721, 25.3241539, 5.17985106, 0.0470585823, 1.72414589,
          4.28419876, 2.25047255, 7.02787638, 44.8686829, 2.50194979,
          0.0124009186, 0.0556786992, 0.0124009186, 0.0284124017, 0., 0.,
          56.991188, 32.0695915, 16.2827816, 66.8399887, 23.3129997,
          14.3284998, 28.5794315, 17.2597771, 25.6171608, 18.0840664,
          34.3232498, 69.3190079, 28.7578392, 30.1459961, 18.9740601, 0.,
          106.164131, 37.5332146, 0.224031702, 0.0513684042,
          0.0375341177, 0.0499132052, 1.31022, 44.3844643, 70.6648865,
          2.41788721, 0.0124009186, 0., 0.0248022899, 0.0110917864,
          5.74666739, 0. ]
      - [ 4.12851286, 3.01689839, 0.0372032076, 7.80374146, 7.6001935,
          17.7300014, 8.65557861, 14.777029, 59.3343544, 4.95884228,
          0.0896968693, 0.0862746239, 0.655798793, 2.57377172,
          3.23061585, 0., 0., 0., 0., 0., 0., 0., 0., 0., 0., 0., 0., 0.,
          0., 0., 0., 0., 77.461113, 118.594513, 28.3961201, 111.978485,
          14.7078905, 25.8514042, 10.8271217, 62.6104202, 69.6975174,
          97.0857773, 63.5663414, 51.4613571, 40.3205681, 56.9269791,
          68.6685562, 0., 14.1151295, 178.435806, 4.9390111, 8.04673958,
          8.21752548, 8.81020355, 2.55136466, 15.6306839, 122.169296,
          51.6537476, 0.0849292725, 0.0392153263, 0.047668919,
          0.155139998, 7.93341541, 0. ]
      - [ 35.6609383, 26.4784317, 23.715023, 82.1409225, 40.1679115,
          22.3100739, 10.7738018, 44.5287209, 19.0509472, 41.7807922,
          27.4650917, 91.2239685, 24.6324253, 17.7268639, 25.8754959, 0.,
          73.5810242, 23.6526451, 13.0710764, 3.77177477, 3.33792067,
          6.33396244, 4.56015396, 25.957695, 83.630867, 1.83216631,
          0.0124009186, 0.41336605, 0.0124009186, 8.0514183, 9.27213287,
          0., 0., 0., 0., 0., 0., 0., 0., 0., 0., 0., 0., 0., 0., 0., 0.,
          0., 0., 0., 0., 0., 0., 0., 0., 0., 0., 0., 0., 0., 0., 0., 0.,
          0. ]
      - [ 72.4599228, 28.8195629, 24.0682316, 39.4314346, 20.9876461,
          36.7240715, 31.3797359, 111.081764, 46.9172668, 44.7869606,
          52.1881447, 104.232521, 38.2174606, 8.27994633, 23.1290398, 0.,
          0., 0.0110917864, 6.2378583, 70.2534637, 19.9278717,
          1.81866813, 0., 0.00784313679, 0., 0., 0., 0., 0., 0., 0., 0.,
          17.3267708, 53.1285782, 12.9074621, 11.571106, 4.94405746,
          20.411272, 5.06645632, 2.49581814, 0.0474766456, 29.0910587,
          51.7122879, 3.65866089, 12.5650902, 36.1895218, 59.6590424, 0.,
          152.495895, 19.9956417, 4.7125144, 7.53204107, 7.93834782,
          10.3705797, 2.58946943, 150.823044, 15.4836378, 0.536131501,
          0.0124009186, 0.0156861544, 0.012401145, 0.0508132018,
          9.85290909, 0. ]
      - [ 6.76020956, 13.1914806, 11.170599, 49.4393234, 47.1595001,
          38.9642982, 16.8261509, 27.0528069, 18.5351696, 21.983408,
          23.7640476, 67.968895, 30.0361347, 8.897439, 6.78628731, 0.,
          0., 0., 0., 0., 0.0199960954, 0.460460097, 4.0638175,
          23.2435036, 2.80315399, 0.351110667, 0., 0., 0., 0., 0., 0.,
          90.3724518, 3.59105492, 0.0299387053, 3.59066582, 12.628397,
          13.7612925, 17.0204926, 82.9788971, 25.9290237, 5.33635712,
          3.74253273, 0.0705881119, 20.6192417, 42.5482903, 72.7274857,
          0., 97.6031113, 7.99648809, 2.85408378, 8.00405884, 7.22365618,
          20.8412151, 37.3034782, 58.6754417, 19.2169533, 0.504802048,
          0.0199963301, 0.0435256884, 0.0372032076, 32.8389778,
          31.3974667, 0. ]
      - [ 86.2929535, 60.626255, 12.1804428, 12.0195551, 14.8059683,
          35.5066795, 13.1447582, 67.3432846, 66.8839417, 141.685303,
          24.7393436, 22.8623505, 33.7493668, 34.116024, 9.95419884, 0.,
          122.863029, 13.3633595, 48.0736847, 30.8344421, 16.8386307,
          28.6247463, 31.7627811, 147.182846, 15.381258, 1.94094706,
          3.19666028, 11.7120743, 9.3106451, 5.71762276, 26.6388168, 0.,
          62.0149002, 22.2608051, 0.0640179738, 0.0470590591, 0., 0., 0.,
          0., 0., 10.4133339, 0.0399926603, 8.00702763, 5.4380765,
          6.78719139, 3.47124839, 0., 15.7297354, 0.621543467,
          0.0352673456, 0.0156862736, 0.0124013703, 0., 0., 0., 0., 0.,
          0., 0., 0.0124009186, 1.85419822, 5.78299618, 0. ]
      - [ 2.90621257, 24.2853298, 33.8100586, 73.8693619, 15.446703,
          19.0526009, 6.62153006, 30.8740482, 19.2375336, 56.3116493,
          50.2469711, 46.1208839, 4.2712841, 5.74010277, 3.02287579, 0.,
          44.5273018, 65.8454056, 5.66299915, 5.76384544, 2.27651072,
          6.621943, 7.3776083, 23.5913811, 118.757446, 12.3840599,
          0.0372032076, 0.0313725471, 0., 0.0388215892, 0.057199426, 0.,
          59.132019, 44.3979912, 2.48966599, 45.7518082, 11.7568779,
          9.73716545, 11.1924648, 40.1027145, 74.3853607, 12.5362062,
          11.6378403, 45.3958511, 12.4475603, 28.0971069, 72.2053452, 0.,
          0.162459448, 61.0815697, 0.042339623, 0.0235292912,
          0.0199963301, 0.00554589322, 0., 0., 3.45187163, 2.07120657,
          0.0199961532, 0., 0., 0.00554589322, 0.0477258116, 0. ]
      - [ 7.92421484, 10.1451387, 28.9705982, 46.5561333, 26.410429,
          18.0712872, 21.2322826, 14.1196804, 23.6577625, 42.9930458,
          30.4807415, 47.4054184, 9.01680756, 3.93633866, 7.79437017, 0.,
          0., 0., 0., 0., 0., 0., 0., 0., 0., 0., 0., 0., 0., 0., 0., 0.,
          51.9233932, 0.0831887797, 10.7679043, 30.2177563, 8.69065475,
          13.1929426, 32.1816292, 77.6796036, 4.70601082, 6.55148554,
          10.2618799, 7.32908964, 27.4016018, 71.2615204, 63.1839828, 0.,
          96.0837784, 8.95290661, 3.12865806, 7.85976791, 4.00453806,
          6.02576017, 4.21747828, 106.801567, 5.2193799, 0.394119024, 0.,
          0.0156860352, 0., 0.0277294666, 16.0220509, 0. ]
      - [ 56.665699, 25.1806507, 8.42944717, 14.4882231, 7.2520299,
          0.0332756937, 0.0970809981, 37.2935905, 46.939785, 23.6592941,
          16.5814781, 22.0633831, 0.0228666309, 0.0175377335,
          0.0496043526, 0., 8.03111744, 0.332803071, 23.6721783,
          22.3646603, 21.1532516, 10.8837385, 20.0109406, 39.1110306,
          0.0299388021, 19.1090813, 17.4075394, 15.2248545, 3.89202785,
          5.95291042, 26.2107449, 0., 50.0965118, 18.1987114,
          0.070250757, 0.0556786992, 13.805295, 17.0393963, 18.4001522,
          2.21384406, 46.8953247, 28.8891735, 4.70670938, 4.23742914,
          29.6537437, 34.0727119, 10.9456625, 0., 132.137665, 23.0935764,
          28.8439426, 17.4115639, 3.65269303, 7.41261053, 11.9813452,
          103.49765, 16.5246506, 37.327198, 0.01240109, 0.0399924256,
          8.27296066, 5.53410244, 21.3265228, 0. ]
      - [ 18.8610802, 54.7958298, 46.2680817, 31.8743134, 23.0343914,
          16.7346344, 12.6610012, 48.0174637, 48.0325584, 97.0450211,
          25.0340424, 21.2556477, 10.3574276, 7.28116608, 6.94510317, 0.,
          99.9601517, 15.3533459, 2.49194074, 0.110083669, 6.26922464,
          2.17050028, 4.20452738, 77.7173615, 43.082943, 0.804820895, 0.,
          57.223526, 0., 0., 2.45565438, 0., 67.0148926, 6.17626047,
          0.0124009186, 0.0392153263, 0., 1.13158834, 2.59016562,
          2.16403794, 0., 0.374217093, 0.0175377876, 7.94285202,
          5.67267179, 3.79648256, 12.2205906, 0., 9.43807793, 1.59286857,
          0., 0.0199960954, 0., 0., 0., 0., 0., 0., 0., 57.223526, 0.,
          0.0175378416, 0.0571993515, 0. ]
      - [ 15.770052, 91.6327972, 50.6934776, 0.0313729048, 1.78024125,
          0.467213362, 16.9898624, 42.1811371, 85.4571228, 144.500702,
          37.5668335, 39.6475029, 7.21673059, 5.84028959, 1.64937556, 0.,
          8.41198635, 5.36971903, 14.7307005, 70.8559189, 39.8906937,
          23.6101074, 2.32332301, 59.1074829, 51.3434563, 1.56547964,
          0.0423400626, 0.0627446175, 0.022866426, 0.068351306, 0., 0.,
          31.2560463, 189.261139, 54.6142731, 17.3406181, 2.09347129,
          8.67657757, 2.33774781, 1.88542771, 17.2481956, 94.4885712,
          134.106583, 48.9848938, 12.4339895, 16.1580734, 25.6213875, 0.,
          142.625046, 78.5725403, 10.2808466, 11.6187916, 0.0696008578,
          2.76742744, 0.0248021595, 40.2074432, 72.8316193, 3.13771749,
          0.029939089, 0., 0.028278932, 0.151159436, 15.9918718, 0. ]
      - [ 26.9562225, 3.11084342, 0.133340329, 0.00784301758, 7.33104467,
          19.4136353, 23.5138874, 43.6188889, 47.0144768, 12.5961103,
          0.0423398502, 0.0905839652, 0.012401145, 7.50621271,
          6.63601494, 0., 6.80795002, 42.5350685, 6.38277912, 2.00875974,
          5.82168055, 7.13275242, 5.5927372, 8.27850914, 86.6644516,
          9.27326202, 0.0124009186, 0.0712553561, 0.0461355709,
          0.0332756937, 0., 0., 90.5642166, 72.8855591, 43.1067848,
          73.2137222, 13.7341595, 30.5140533, 31.9634094, 13.547802,
          77.0795898, 40.3338242, 67.992897, 48.4632835, 41.9754524,
          50.602047, 47.5599709, 0., 111.319824, 90.1708603, 0.515916884,
          0.0470583439, 0.0499348007, 0.0166376792, 0.0124010695,
          0.177525997, 123.297043, 10.4422493, 0.0175377876,
          0.0478356779, 0.0372032076, 0.0729968324, 0.0124010695, 0. ]
      - [ 0., 0., 0., 0., 0.0124009186, 0.471438736, 1.47349191,
          5.06034517, 3.31828475, 0.327655524, 0.0323380828, 0., 0., 0.,
          0., 0., 0., 0., 0., 0., 0., 0., 0., 0., 0., 0., 0., 0., 0., 0.,
          0., 0., 83.8132477, 23.9862862, 9.44079876, 7.49931622,
          80.8141174, 46.8148079, 27.5966721, 167.086823, 45.7435684,
          19.5650692, 3.24658656, 44.2994652, 55.4308281, 44.1614609,
          145.471634, 0., 95.6455917, 6.47419071, 9.71939754,
          0.0235294141, 7.7454381, 8.00675869, 6.29038429, 105.677254,
          9.89894772, 0.363382757, 0., 0., 0.01240109, 0.0443673134,
          24.0362988, 0. ]
      - [ 3.73563027, 0., 0., 0., 0., 0.0221837405, 0., 59.1246109,
          25.3356857, 2.51191521, 0.0124009186, 0.221837416, 0., 0.,
          1.41352832, 0., 0., 0., 0., 0., 3.30177188, 11.4237518,
          8.72234631, 15.7176189, 0., 0., 0., 0., 0., 0.088734962,
          1.04176533, 0., 120.474762, 32.6647568, 20.5367947, 5.20520115,
          11.0627909, 3.01933932, 7.82795382, 23.3182831, 90.6455154,
          18.0218086, 17.7538204, 36.1921387, 11.4878111, 24.1805782,
          33.3836555, 0., 96.538826, 31.8444462, 31.7955837, 18.2178688,
          2.15162754, 5.12193632, 16.9660568, 73.6610947, 30.6333733,
          1.18326283, 3.87936878, 5.50889015, 6.40385962, 5.42726946,
          9.49771023, 0. ]
      - [ 17.9767361, 11.9344368, 7.14814901, 7.62687969, 17.7443142,
          16.1289864, 7.31688786, 39.5778618, 28.8759632, 15.9788361,
          10.9276562, 11.3621788, 2.85776854, 5.41297722, 2.83149743, 0.,
          0.00784313679, 0.00554589322, 0.0175377876, 8.0019989,
          1.99410903, 4.74415016, 6.25487709, 14.555851, 37.6647758,
          1.03285027, 0.0124009186, 0.0156862736, 0., 0., 0., 0.,
          86.1959763, 2.94981623, 9.59954929, 22.1395359, 20.4356842,
          9.33763027, 9.79186916, 74.4194031, 24.1421757, 6.09004736,
          3.33292031, 22.6451321, 31.4739513, 33.5870056, 51.0736122, 0.,
          172.792923, 41.6969643, 1.94237101, 0.00784301758,
          0.0124009186, 0.0221835729, 0., 80.3381729, 66.5523376,
          3.22467303, 0.0175377894, 0., 0.0248018373, 0.0388212502,
          0.0620053895, 0. ]
      - [ 4.95284843, 9.60806942, 23.1446495, 70.107872, 42.3578072,
          14.4024696, 16.9373379, 10.4389601, 19.5797691, 17.4004536,
          26.0780602, 99.5160599, 8.57327747, 4.30335617, 5.29990959, 0.,
          58.0003357, 40.9359169, 1.79148269, 0.0313727856, 5.25440979,
          1.25893998, 2.93748474, 10.8202229, 108.70961, 5.85078049,
          0.0849292725, 0.0549015999, 0.0175379999, 0.126003683,
          2.90490127, 0., 27.9303799, 16.0671883, 8.89879036, 9.48056984,
          16.7459812, 8.03326988, 5.56477165, 24.4160728, 15.7751169,
          4.96835899, 3.02705479, 26.5119133, 8.0170393, 14.5040474,
          39.2554092, 0., 14.8993683, 47.7107353, 0.112293869,
          0.00784301758, 0.0355112515, 0., 0., 0.559601009, 31.0717602,
          2.08964968, 0., 0.0156860352, 0.379400373, 0.0228666309, 0.,
          0. ]
      - [ 10.195241, 12.6469898, 7.40428162, 50.1577797, 36.5882454,
          18.9355736, 8.89287186, 35.1446228, 16.216938, 21.8260975,
          21.581955, 57.7259331, 14.793725, 5.70888376, 3.03387761, 0.,
          0., 0., 0., 0., 0., 0., 0., 0., 0., 0., 0., 0., 0., 0., 0., 0.,
          95.4206696, 1.04978216, 8.70966053, 24.6013908, 6.17577362,
          9.77194118, 23.4776306, 86.8090134, 6.64952421, 5.60769558,
          2.95668602, 25.9207363, 26.884243, 21.9524403, 56.0052567, 0.,
          32.2265701, 4.06008768, 8.79779911, 0.100624412, 9.54888725,
          5.7905817, 9.04574871, 136.854691, 0.0474766456, 0.0450502895,
          0., 0.0156860352, 0.0248020068, 0.444301575, 111.702477, 0. ]
      - [ 88.144516, 60.5578537, 98.9460602, 62.5153465, 29.9352341,
          28.3310966, 26.1717186, 118.831985, 113.951469, 89.3536911,
          79.6670837, 60.4207535, 15.5156012, 39.827343, 41.6484909, 0.,
          134.080765, 31.5072498, 3.7161231, 1.4471463, 1.35093963,
          10.0341806, 13.0578012, 48.77911, 106.78981, 4.35982084,
          0.0696006864, 0.0156860352, 0.0248022899, 0.0397213064,
          16.1531906, 0., 54.8614578, 2.87007093, 0.0124009186,
          0.0156862736, 0., 0., 0., 0., 0., 0., 0., 0.0199963301,
          0.0124009186, 6.7371316, 30.401907, 0., 0., 0., 0., 0., 0., 0.,
          0., 0., 0., 0., 0., 0., 0., 0., 0., 0. ]
      - [ 87.8081131, 60.7157326, 86.1262283, 45.7945442, 19.9961529,
          60.3717651, 56.1812172, 107.345367, 78.8083496, 79.3242569,
          83.2222824, 48.8550034, 45.6537895, 29.2720795, 23.2438641, 0.,
          87.9853058, 84.2856293, 9.53096485, 15.7998333, 11.3484383,
          8.47854137, 7.21739388, 26.1133652, 189.914734, 13.625639,
          0.107354134, 0.0278393477, 0.0423400775, 0.0452673696,
          0.0277296677, 0., 46.1502037, 9.98483849, 2.00651002,
          8.95449352, 5.56832886, 10.6324673, 9.0054512, 18.7454491,
          15.5574207, 1.17078292, 0., 23.6054554, 4.15355873, 42.451725,
          71.3123245, 0., 52.6203842, 21.293787, 0.042339623, 0., 0.,
          0.00554593606, 0., 0., 5.02594805, 0.422402292, 0., 0., 0., 0.,
          0.0496042781, 0. ]
      - [ 7.96320724, 17.8755531, 5.77871084, 36.177681, 23.6067886,
          7.5144949, 12.4705753, 14.6540594, 21.2849407, 21.8244934,
          7.11333609, 40.3008614, 14.2515373, 4.69687653, 9.36329079, 0.,
          0., 0., 0., 0., 0., 1.4763447, 3.08102465, 23.4535828,
          2.77956796, 0.0277298018, 0., 128., 0., 0., 0., 0., 64.995285,
          41.5587196, 6.03084326, 19.3948174, 18.5999126, 9.01452255,
          5.00231266, 26.492794, 39.0283737, 19.3793468, 36.5662117,
          11.7731867, 21.2805729, 7.63352537, 14.7471275, 0., 26.6807156,
          0.233004168, 8.43195438, 10.322217, 6.04436588, 4.46887112,
          3.91123748, 19.1525536, 3.95975518, 0.679869294, 4.00349331,
          133.248047, 5.58523655, 3.06589317, 23.4257507, 0. ]
      - [ 9.0005722, 7.71648216, 37.9283066, 38.0446358, 7.64549828,
          14.1867485, 11.2695704, 44.423996, 38.5014191, 55.4735985,
          27.7324352, 12.2735758, 7.05956078, 11.833519, 15.507741, 0.,
          27.0160866, 27.0447083, 1.23953831, 5.44013071, 1.67289734,
          5.33884478, 1.36466074, 8.42985058, 42.0006866, 1.95036423,
          0.0248022899, 0., 0., 0., 0., 0., 47.4832458, 2.29117417,
          0.0352675505, 0.303206027, 0.0124009186, 0.00554589322, 0.,
          11.4071407, 0., 0., 0., 0.0313723087, 0.0845879763, 10.7801266,
          35.2253227, 0., 2.75088859, 1.44208014, 0.0124009186, 0., 0.,
          0., 0., 0., 0., 0., 0., 0., 0.0175377876, 0.0110917864,
          0.019996142, 0. ]
      - [ 23.6052608, 131.656052, 70.8199081, 41.722538, 48.1800423,
          37.0380592, 30.7143726, 55.0059204, 116.640327, 190.153824,
          31.1637974, 46.3846931, 37.0683289, 11.8932114, 10.9506311, 0.,
          111.639519, 84.5329819, 4.01370764, 5.22738791, 1.39867055,
          4.34404612, 9.50797749, 53.1715469, 124.854736, 9.30230045,
          0.0372029282, 0.0156860352, 0.0248018373, 0.0581590943,
          3.96993136, 0., 70.1521683, 55.042675, 0.18309398, 0.035682369,
          0.0124009186, 0.0166378077, 0.852343738, 3.70558786,
          1.75016809, 4.03561068, 5.4598732, 11.6422873, 4.841115,
          38.1392632, 21.9372082, 0., 0.0372032076, 0.033275526, 0., 0.,
          0., 0., 0., 0., 0., 0., 0., 0., 0., 0., 0., 0. ]
      - [ 0., 0., 0., 0.0313723087, 0.0124009186, 1.80290627, 9.10521698,
          13.7181129, 12.5213003, 1.69259501, 0., 0., 0., 0., 0., 0., 0.,
          0., 0., 0., 0., 0., 0., 0., 0., 0., 0., 0., 0., 0., 0., 0.,
          81.4436722, 35.8866043, 38.7267075, 29.1282711, 31.5592251,
          10.5934744, 19.0172958, 36.7899513, 32.8284073, 43.45504,
          45.2078438, 32.7670326, 12.6244707, 20.8829288, 26.4342003, 0.,
          65.0626526, 5.21972752, 2.77617478, 0.0870507732, 2.84285855,
          5.16328192, 2.9893465, 158.720978, 1.22443306, 0.0277294666,
          0.012401145, 0.0156860352, 0.0404042155, 0.135584533,
          97.7225723, 0. ]
      - [ 26.8207607, 40.4916, 1.41332138, 14.8845501, 23.5956612,
          14.1562939, 13.6625338, 32.8803902, 55.9569969, 43.7395515,
          8.59986401, 10.3862066, 5.13221169, 6.70304966, 5.4661231, 0.,
          0., 0., 0., 0., 0., 0., 0., 0., 0., 0., 0., 0., 0., 0., 0., 0.,
          87.6087723, 28.4134712, 125.50399, 24.5245533, 37.4721832,
          12.3275013, 10.8314085, 99.4015121, 35.4845009, 42.8998604,
          85.1352158, 41.7847481, 42.5345154, 36.8684502, 68.2656326, 0.,
          197.123383, 77.8553696, 0.337741554, 0.0470581055,
          0.0124009186, 0.0443671457, 0.067142196, 33.5424271,
          224.431747, 17.2417564, 0., 0.0470585823, 0.0175377876,
          0.0674512163, 0.0973300859, 0. ]
      - [ 69.8470154, 43.2647781, 3.76388597, 0.0909601077, 2.51792192,
          23.3161678, 8.93526936, 76.3861008, 75.297554, 41.6403618,
          0.0722787827, 23.4442539, 11.1485023, 6.26418543, 23.4806957,
          0., 0., 0.0110917864, 0.0175377876, 23.7031689, 17.600872,
          2.56024218, 0.0124010695, 0.019996142, 0., 0., 0., 0., 0., 0.,
          0., 0., 84.0659866, 9.77700043, 111.706482, 48.9037781,
          21.196785, 19.5126686, 31.693243, 80.4985657, 17.1342316,
          39.6722145, 119.527267, 74.3385162, 24.6474018, 30.2841873,
          79.0225525, 0., 149.324539, 28.1056461, 14.5176926, 34.1951752,
          7.92507172, 5.21983576, 6.97810411, 78.5672989, 83.1830063,
          4.19201469, 0.0895970017, 0.0235292912, 0.0124009186,
          0.0554592684, 0.0820015073, 0. ]
      - [ 4.98032904, 18.7357311, 12.5863123, 13.099, 12.6073351,
          7.35499001, 13.1415606, 9.41664696, 18.8136578, 30.7151165,
          14.9179277, 6.21336317, 7.58411932, 4.06528187, 6.50295973, 0.,
          0., 0., 0., 0., 0., 0.0110917864, 0., 0.0156862736, 0.,
          0.0110917864, 0., 0., 0., 0., 0., 0., 70.2882919, 6.36939907,
          28.8982677, 23.6661015, 5.0061698, 1.26472533, 9.91278076,
          45.7978439, 41.6486206, 5.23948574, 18.5287304, 24.2896671,
          9.17699814, 16.7222767, 26.456459, 0., 77.0616608, 9.24831104,
          2.90361905, 0.667636871, 2.49883914, 2.90277338, 3.28489661,
          56.0816765, 33.6930084, 0.371620238, 0.0175377876, 0., 0.,
          0.517564714, 7.81120729, 0. ]
      - [ 0., 0., 0., 0., 0., 0., 0., 0., 0., 0., 0., 0., 0., 0., 0., 0.,
          0., 0., 0., 0., 0., 0., 0., 0., 0., 0., 0., 0., 0., 0., 0., 0.,
          256.324951, 78.5013428, 17.5383663, 40.3313713, 14.2344656,
          10.5069036, 28.0033092, 166.839981, 162.563461, 41.2550812,
          30.6216049, 40.3265572, 7.3057847, 9.3314209, 47.6780777, 0.,
          86.7692947, 28.9303551, 7.13463736, 6.39130402, 6.18095541,
          8.15056324, 6.87757874, 117.581604, 2.75847292, 3.96052527,
          3.14846444, 1.83663857, 6.00385809, 8.49591637, 12.8114614, 0. ]
      - [ 5.52499628, 13.1238823, 20.3826427, 3.06778693, 23.0823097,
          19.6000137, 7.43412542, 22.047966, 14.1811333, 11.3815346,
          27.3477631, 2.54107714, 18.5017757, 13.6939821, 4.24162817, 0.,
          23.704998, 79.1188049, 4.36723328, 1.04152572, 3.08857846,
          0.72661525, 5.18361855, 4.30206442, 118.013145, 8.49207687,
          0.0248018373, 0.0512590259, 0.042339623, 0.0619048774,
          0.0124010695, 0., 61.1825905, 34.7077141, 5.87448215,
          35.063652, 23.0621281, 9.49521828, 4.41482782, 33.5701141,
          59.0197639, 9.58512115, 11.0582285, 46.2747803, 21.9127655,
          14.6280518, 30.4661121, 0., 24.4314861, 29.1367073,
          0.097112529, 0.0156860352, 0., 0., 0., 3.29886365, 18.2907963,
          0., 0., 0., 0.0175379999, 0.00554589322, 1.22960019, 0. ]
      - [ 38.8018799, 56.1986084, 28.9753666, 19.4024658, 6.09100199,
          12.6140661, 37.3788147, 61.3434906, 73.1526794, 48.4169502,
          60.9154854, 80.4040756, 8.22315598, 8.8853693, 14.1400681, 0.,
          84.938858, 18.4214268, 2.33215976, 75.0400009, 34.4011536,
          6.61827469, 2.11823153, 34.0846863, 110.262207, 5.28906107,
          0.597930551, 9.72119522, 0., 0.0341754146, 4.33837938, 0.,
          33.337719, 17.6690655, 6.80342245, 19.1694698, 8.24156666,
          5.83609724, 10.5925026, 0.0199961886, 0.0461355038, 1.35795844,
          49.2525787, 19.2434635, 10.6323261, 30.3956032, 38.5416565, 0.,
          54.7750511, 78.3061447, 7.00219059, 11.6294174, 1.08638084, 0.,
          0.221976012, 5.23677874, 60.0286026, 18.6963158, 0., 0., 0.,
          0.0459501334, 0.057199426, 0. ]
      - [ 34.1420555, 13.2048864, 0., 0.0156862736, 0., 0.0554591008,
          1.54229212, 36.1758919, 53.7585831, 21.4147472, 0.0575302131,
          0.0313723087, 0.012401145, 2.66507578, 13.2645168, 0., 0., 0.,
          0., 0.0513689965, 15.399641, 21.1544552, 18.1851997,
          0.0235294104, 0., 0.0221835729, 0., 2.40785599, 3.8796823,
          4.87714672, 0., 0., 35.5427513, 20.191618, 3.87695789,
          8.39847279, 8.50390911, 7.9920702, 2.82510304, 14.4503899,
          46.6058006, 19.7852039, 15.7549667, 17.3716965, 10.958683,
          26.6594391, 43.776722, 0., 149.689423, 15.2190781, 19.3515167,
          18.8934231, 0.0747370869, 8.45271492, 9.84339333, 130.961349,
          5.10821342, 8.84293079, 2.31788278, 0.0156860352, 0.022866426,
          0.0554591008, 11.7356758, 0. ]
      - [ 223.716125, 100.878975, 11.8943882, 17.2487469, 7.98731375,
          9.27727413, 16.7114067, 69.7335281, 182.208969, 106.467934,
          18.8433514, 31.2555103, 10.7292995, 19.503706, 9.79269505, 0.,
          220.788513, 47.4746437, 30.4465008, 16.1492939, 11.009305,
          8.87286854, 27.5688839, 260.324554, 0.873444915, 17.7875462,
          8.50995255, 1.3449322, 2.48319173, 20.2782116, 19.2993298, 0.,
          0.0829892978, 0.0110917864, 0.0124009186, 0.00784301758, 0.,
          0., 0., 0., 0., 0., 0., 0., 0., 0.0332753584, 0.024802139, 0.,
          0., 0., 0., 0., 0., 0., 0., 0., 0., 0., 0., 0., 0., 0., 0., 0. ]
      - [ 69.4158707, 62.7757301, 4.18701839, 7.77670383, 11.1413155,
          7.32685947, 7.5515213, 37.4390602, 123.215775, 41.474308,
          7.14086914, 58.7733727, 2.37613463, 5.00387144, 10.2767763, 0.,
          0., 0.0277296342, 0., 44.8561668, 23.2615242, 7.36029911,
          2.76000714, 7.62766314, 18.9825668, 1.24407887, 0.0298658293,
          0.0156862736, 0., 0., 0., 0., 18.9953213, 10.3019552,
          8.36905575, 1.17768979, 5.03335762, 55.0791435, 26.6784573,
          70.223587, 0.0299388021, 0.0776430145, 0.0846797004,
          44.9553032, 46.3056107, 77.1832352, 77.7143936, 0., 156.578415,
          43.8507957, 7.85646057, 34.2668495, 11.4275131, 7.69833708,
          10.2283258, 56.174305, 110.519112, 7.56849527, 0.012401145,
          0.00784301758, 0., 1.43179429, 31.7664928, 0. ]
      - [ 33.5027771, 10.5732031, 2.66350317, 0., 0., 1.17639458,
          7.60291195, 42.097374, 76.3885498, 17.8101368, 0.0372032076,
          2.81305313, 1.92220879, 1.16187, 6.94860077, 0., 0.,
          4.43305063, 6.90304327, 7.69577694, 7.52346087, 6.22705173,
          1.7342025, 0.00784313679, 0., 0., 0., 0., 0., 0., 0., 0.,
          135.282944, 112.384003, 6.21058083, 16.5864067, 4.87927628,
          0.67224896, 5.80914879, 57.010006, 85.8493881, 39.1777763,
          15.637002, 20.613863, 19.1949482, 6.58041, 7.59237576, 0.,
          139.75914, 7.31186008, 5.7456274, 3.22233009, 7.39580441,
          6.16734123, 3.20729256, 142.886139, 16.2604275, 0.105372645,
          0., 0., 0., 0.449571729, 19.8241444, 0. ]
      - [ 10.2830954, 5.66995716, 2.98081732, 0.00784301758,
          0.0499350354, 20.1001091, 40.1067581, 42.5308495, 20.6436939,
          12.1340551, 16.4827385, 0.0434157699, 0., 3.28402948,
          29.9983501, 0., 0., 0., 0., 0., 0.0124013703, 0.00554589322,
          0.0299388021, 11.5283356, 34.3784752, 3.97771621, 0.0323972479,
          0., 0., 0., 0., 0., 5.74458885, 10.7310972, 43.6328125,
          16.4302273, 68.8956299, 40.4966545, 30.8100624, 3.19192982, 0.,
          4.94445276, 43.4763451, 54.208004, 58.5765381, 80.3643875,
          35.8650475, 0., 124.020958, 129.899445, 0.463923752,
          0.0862742737, 0., 3.05208468, 6.91605854, 49.893364,
          154.750381, 16.1867714, 0.0452674665, 0.0512590259, 0.,
          0.516735554, 23.6491318, 0. ]
      - [ 11.2677746, 17.6407738, 7.0410161, 23.7567272, 6.46750593,
          4.81723213, 6.2724123, 13.1362019, 17.6395931, 30.6322727,
          10.4733229, 7.14298725, 5.43525124, 2.49942923, 0., 0., 0., 0.,
          0., 0., 0., 0., 0., 0., 0., 0., 0., 128., 0., 0., 0., 0.,
          16.0804768, 4.83656168, 54.6167755, 9.30906582, 2.59548473,
          0.507856071, 4.00164366, 46.1650276, 0.0299388021, 16.4541149,
          38.0223846, 17.6312695, 2.19260335, 9.62012577, 46.7893486, 0.,
          111.90403, 11.2680788, 2.66344261, 7.59068632, 3.11127472,
          5.80952644, 4.30298138, 94.425499, 41.7096024, 0.667142272,
          0.0299387053, 130.389511, 0.0124009186, 2.49629188, 20.0892811,
          0. ]
      - [ 5.29359102, 13.7535744, 3.714046, 0.0549015999, 6.48376942,
          18.8059311, 8.96578884, 24.5056152, 12.0939159, 15.1003208,
          6.88731146, 0., 7.14262438, 5.76764679, 9.98916435, 0., 0., 0.,
          0., 0., 0., 0., 0., 0., 0., 0., 0., 0., 0., 0., 0., 0.,
          26.4705544, 0.122906283, 5.64542675, 36.2161674, 56.5240059,
          15.1330891, 45.9227905, 89.6952438, 4.29686832, 5.52165937,
          14.5847406, 45.6816483, 39.7542, 34.2208481, 125.275955, 0.,
          171.598587, 8.48543835, 2.46550941, 0., 2.30927467,
          0.172044173, 5.43657732, 146.383652, 40.1272202, 2.44772029,
          0.0124009186, 0.00784301758, 0., 0.0166376792, 14.7057734, 0. ]
      - [ 108.79525, 45.4437561, 31.2492008, 22.556179, 45.9875221,
          34.7195015, 28.8178463, 74.1995926, 94.1608734, 35.4504776,
          40.2255859, 39.8480225, 30.8383198, 27.9272213, 46.7281075, 0.,
          65.0473785, 24.9967518, 2.92038417, 5.11704302, 4.74899673,
          6.06233597, 0.751663566, 91.1587219, 15.4539566, 4.50701332,
          3.81381559, 5.28828573, 4.54414845, 2.33350778, 27.4081478, 0.,
          3.14062405, 2.84798694, 0.0124009186, 0., 0., 0., 0., 0., 0.,
          0., 0., 0.00784301758, 0., 1.0995121, 2.4745028, 0., 0., 0.,
          0., 0., 0., 0., 0., 0., 0., 0., 0., 0., 0., 0., 0., 0. ]
      - [ 5.08684015, 38.1714554, 20.205822, 40.9715691, 16.9261951,
          6.14025211, 8.93632889, 15.2088995, 23.6681957, 29.665266,
          47.5794144, 21.5003433, 3.77318621, 4.02155447, 0.0248022899,
          0., 0., 0., 0., 0., 0., 0., 0., 0., 0., 0., 0., 0., 0., 0., 0.,
          0., 19.3912525, 1.3275106, 2.88968825, 34.7390518, 3.81551933,
          15.5416918, 21.7142296, 57.5545006, 0.0124010695, 0.451052666,
          20.9619541, 16.2228336, 21.991888, 29.3031616, 60.086544, 0.,
          75.5460281, 22.6330338, 0.0918710977, 1.82010543, 3.2357049,
          1.27082551, 5.91252232, 63.390522, 48.9833336, 2.13826466,
          0.0880353302, 0.0313720703, 0., 0.0277294666, 26.6400204, 0. ]
      - [ 67.7870636, 34.4945526, 8.06632996, 0.0313725471, 9.87355995,
          4.98359585, 7.1946497, 53.6440277, 64.5587921, 60.6800232,
          11.1277132, 11.3974047, 8.92111588, 0.759992719, 19.9987907,
          0., 0., 0.0674692169, 21.918951, 25.3638763, 23.6821918,
          27.7365589, 30.5779438, 96.2581024, 43.1371231, 19.9789524,
          8.68367577, 8.14055157, 1.65448368, 6.20547056, 7.48450756, 0.,
          72.8869247, 13.3316765, 3.79493284, 0.0760851353, 3.73226643,
          4.52128124, 18.2238808, 3.67190933, 49.9938927, 31.133873,
          3.72118664, 3.84280658, 7.18679476, 30.2408943, 29.1323414, 0.,
          167.980209, 13.4039392, 5.08704138, 0.647169709, 0.0124009186,
          1.98684573, 0.90824753, 12.1867628, 2.90466285, 0.527616739,
          0., 0., 0.0124010891, 0.0277294666, 16.0060005, 0. ]
      - [ 50.4384842, 16.3234196, 8.98495007, 12.4119768, 18.4721413,
          42.3915405, 18.7770519, 71.6317139, 46.936348, 29.9281979,
          24.5751572, 43.4111519, 19.2243042, 14.0914049, 26.8291035, 0.,
          0., 0.0221835729, 1.0560776, 17.3366356, 22.2017517,
          1.28919911, 0., 0.019996142, 0.0175377335, 0., 0., 0., 0., 0.,
          0., 0., 23.7661438, 2.71118212, 11.8539162, 1.22002172,
          2.9267621, 8.84054661, 29.6753407, 34.3769379, 13.2349157,
          14.7690048, 0.0496041253, 0.0670548007, 5.70232153, 69.1265411,
          73.4591522, 0., 8.00062084, 5.48467207, 11.9036884,
          0.0313720703, 7.36619091, 11.6570654, 55.548481, 106.89473,
          0.0496042967, 0.0332754441, 0., 0.0591022819, 0.0612568632,
          26.4575996, 131.696442, 0. ]
      - [ 33.9003181, 13.9965925, 3.95126581, 0.694638073, 21.4568462,
          10.6509056, 6.67730236, 37.4595222, 29.8812542, 19.4716721,
          2.59611082, 11.9383183, 4.2677002, 7.01500702, 7.41048765, 0.,
          35.8098679, 16.8386211, 3.34531903, 1.25953007, 1.19716215,
          3.95434928, 7.13082886, 13.2088232, 60.4939651, 6.58960199,
          0.0323972479, 0.0313723087, 0.0175377876, 0., 2.1498003, 0.,
          43.4617653, 46.129631, 22.7590141, 74.584198, 17.8776302,
          6.18048, 9.79009438, 20.1594944, 26.5110302, 34.8141861,
          54.1521339, 57.3959503, 15.8758287, 13.9894419, 16.1148071, 0.,
          50.9978714, 85.2918701, 0.0526133627, 0.0627448559,
          0.0199960954, 0.0499130376, 0.0175377335, 8.29785442,
          89.9957275, 3.80198526, 0.0175377876, 0.00784301758, 0.,
          0.080342941, 0.759154618, 0. ]
      - [ 12.8224764, 2.61334515, 0.012401145, 0.0868801922, 10.0046396,
          17.7354584, 20.4780369, 14.7265129, 58.0187912, 11.666297,
          0.0248020627, 0.0235295296, 0.0476684682, 7.8835144,
          1.51926255, 0., 0., 0., 0., 0., 0., 0., 0., 0., 0., 0., 0., 0.,
          0., 0., 0., 0., 94.0652008, 39.9363632, 30.1972504, 76.047142,
          33.6934357, 21.5722275, 28.5345173, 91.8534012, 0.0474765934,
          24.3778706, 54.7492828, 84.0165939, 34.4454117, 30.6420174,
          66.0089798, 0., 87.1891785, 9.42840576, 6.06770134, 4.8974309,
          4.65017748, 6.36205149, 4.88221598, 166.147156, 1.36339271,
          0.277543277, 0.0474036187, 0.0156862736, 0.16346103,
          0.493724763, 79.8124771, 0. ]
      - [ 69.3054428, 35.3423576, 44.971405, 24.0774345, 58.2329025,
          37.4861031, 38.8881302, 119.983932, 27.2682056, 56.1571808,
          30.1332169, 55.2814369, 43.5416489, 43.1491737, 75.2600479, 0.,
          96.1211243, 32.5992355, 5.71128988, 8.12107372, 2.31510949,
          5.13622761, 6.58819246, 68.4695969, 49.2561607, 3.95499873,
          0.0124009186, 0.00784301758, 0., 0.0674507692, 0.0124010695,
          0., 6.59321308, 2.12418675, 0.0175377876, 0., 0., 0., 0., 0.,
          0., 0., 0., 0.00784301758, 0.0447127111, 2.83568144,
          3.27233458, 0., 0., 0., 0., 0., 0., 0., 0., 0., 0., 0., 0., 0.,
          0., 0., 0., 0. ]
      - [ 0., 0., 0., 0.015686512, 0.0248018373, 2.3619976, 9.29882908,
          6.30027199, 16.1614056, 0.610087931, 0.0323972479, 0., 0., 0.,
          0., 0., 0., 0., 0., 0., 0., 0., 0., 0., 0., 0., 0., 0., 0., 0.,
          0., 0., 47.9135551, 26.3770638, 9.56928539, 63.3424683,
          38.6463127, 29.5219517, 32.2777367, 32.2937431, 50.5153732,
          35.1699905, 21.8729935, 63.1719971, 12.801897, 75.192276,
          59.9289474, 0., 121.194801, 67.1589508, 4.48271418, 7.95139265,
          0.0547409952, 6.41910124, 7.43641186, 56.5426636, 114.484543,
          6.87517786, 0.0372030959, 0.0392158069, 0.0248018373,
          0.0443673134, 0.0771955401, 0. ]
      - [ 5.67499733, 13.4371862, 20.1505165, 8.72071075, 34.1284065,
          6.80547476, 7.71856928, 11.2334499, 12.1785736, 27.7489071,
          11.0604773, 28.813282, 10.2423534, 3.85886955, 0.133789182, 0.,
          0., 0., 0., 0., 0., 0., 0., 0., 0., 0., 0., 0., 0., 0., 0., 0.,
          7.26323748, 2.8151772, 0.40710324, 13.31283, 12.432004,
          18.5456848, 11.3675251, 13.7227631, 1.59364796, 0.0388212539,
          0.0703023374, 22.5445423, 20.5604649, 18.3413277, 31.5575237,
          0., 79.9040451, 13.8528528, 0.0175377876, 2.49516153,
          2.33832908, 4.45703125, 3.95931578, 67.7731552, 37.3987999,
          1.5338254, 0.0299389325, 0.308729798, 0., 0.0619048774,
          20.9298668, 0. ]
      - [ 71.9604263, 24.638731, 8.75439262, 11.0278463, 0.0199963301,
          0.00554589322, 0.0620053485, 50.5454636, 107.125725,
          56.8951683, 13.2456064, 4.11826611, 4.10266161, 0.079002358,
          11.5296984, 0., 0.01240109, 3.16775608, 7.47537661, 30.8261852,
          14.7549105, 17.7897797, 10.1165428, 51.0963669, 0.0372032076,
          1.58326459, 3.21803856, 7.16711855, 1.51809788, 0.0166378915,
          0., 0., 115.474167, 0.978410363, 0.121363468, 1.80415452,
          2.92937112, 1.37299228, 5.29153585, 41.4788437, 18.9000225,
          2.12751079, 7.61000252, 15.5486813, 2.98419404, 7.92922211,
          27.2410927, 0., 98.5968399, 5.9477191, 4.10084248, 7.84653664,
          0., 4.7429719, 6.00123119, 47.264267, 0., 0., 0.0248021781, 0.,
          0., 0.0110917864, 15.9423208, 0. ]
      - [ 42.5471153, 47.1739845, 13.0860043, 14.9595985, 3.37624073,
          4.44584846, 1.53525949, 29.5376568, 42.2434044, 57.4089241,
          16.7368698, 17.4729481, 5.62514496, 0.32465595, 0., 0.,
          30.7321739, 5.98125458, 33.1340828, 38.1138153, 23.1999836,
          28.0200729, 39.2092857, 86.2066422, 68.3851166, 40.2933197,
          12.9705791, 13.730279, 10.7146578, 5.86756277, 30.6745224, 0.,
          31.8215027, 18.696579, 1.93522286, 0.0199960954, 0.423050284,
          8.08668518, 12.9891777, 16.0602818, 15.0976906, 44.5480309,
          2.64734364, 7.17776823, 11.9712667, 22.3158283, 35.0313988, 0.,
          127.260513, 33.7988358, 10.5664282, 1.75750649, 2.32794547,
          1.22173333, 2.29763174, 2.87777829, 11.7354279, 5.15397692,
          0.0775916576, 3.55117965, 7.19544268, 1.3928417, 5.4943099, 0. ]
      - [ 6.30185223, 17.1556358, 6.06528616, 26.6990032, 12.8106356,
          9.70639801, 3.25893068, 18.0880699, 32.7107773, 32.9725571,
          27.220253, 5.45413685, 4.64708567, 0.900298834, 2.353791, 0.,
          10.652751, 7.25260258, 18.9205837, 7.54269505, 3.10029674,
          5.56825638, 3.06859016, 6.83972311, 54.0352249, 2.84835958,
          0.790462077, 0., 0.0175379999, 3.19554186, 6.58197689, 0.,
          122.67244, 11.8804855, 11.1321335, 2.80149794, 4.52851629,
          12.7827206, 0., 34.832531, 32.6665115, 34.5860634, 6.64250469,
          12.6486492, 5.06638098, 9.32587528, 19.6560059, 0., 17.9194603,
          6.22105789, 0.0248018373, 0., 0., 0., 0., 0., 0.,
          0.00554589322, 0., 0., 0., 3.5038476, 2.78694677, 0. ]
      - [ 4.36234045, 9.09070492, 3.86704564, 0.0235292912, 13.9147158,
          10.3102083, 6.3135891, 12.8447695, 16.6434975, 20.2889919,
          1.35769236, 7.3835206, 0.453140467, 4.14485312, 5.84690619, 0.,
          0., 0., 0., 0., 0., 0., 0., 0., 0., 0., 0., 0., 0., 0., 0., 0.,
          77.4549332, 3.51770067, 28.0096226, 101.023376, 1.45306015,
          8.14566612, 10.086853, 93.9312286, 11.8017015, 19.8605328,
          37.8199806, 67.7969208, 22.8846779, 16.4941654, 45.9380989, 0.,
          65.0767899, 6.50406456, 2.11199713, 0.00784301758, 2.40049362,
          4.57179594, 2.93662906, 80.1594086, 0., 0., 0., 0., 0.,
          0.0277296342, 15.2367268, 0. ]
      - [ 0., 0., 0., 0., 0., 0.00554589322, 0.0175377335, 7.16970682,
          3.55091453, 0.445602179, 0.0124009186, 0., 0., 0., 0., 0., 0.,
          0., 0., 0., 0.0175377876, 0.821125805, 3.11157012, 20.8110504,
          0.397689223, 0.0110917864, 0., 0., 0., 0., 0., 0., 113.606216,
          112.243378, 8.73616028, 10.3241892, 6.81148005, 8.30965519,
          15.8473902, 14.9037237, 166.943268, 82.0397491, 17.7790623,
          13.1557484, 22.2418518, 25.4220886, 21.2399426, 0., 156.342987,
          18.6784039, 33.8690987, 24.8848591, 28.3040638, 22.5959129,
          20.9302235, 144.240891, 4.06958532, 36.3419304, 14.1500025,
          7.93719387, 2.77921271, 6.75411558, 48.5393982, 0. ]
      - [ 0.00784313679, 0., 0., 0., 0., 2.57720351, 14.8455582,
          57.7779274, 16.0905666, 1.46815944, 0., 0.0355727524, 0., 0.,
          0., 0., 0., 0., 0., 0., 0., 0., 0., 0., 0., 0., 0., 0., 0., 0.,
          0., 0., 125.569611, 57.1756287, 55.1421013, 26.5588112,
          39.1578941, 43.649292, 19.4459705, 58.627449, 39.2893562,
          54.4088364, 69.7679901, 63.1932526, 27.2363758, 28.2065449,
          70.8428497, 3.98431373, 226.774872, 40.8504524, 0.280785084,
          0.0627448559, 0.029938709, 0.049913168, 0.0744064897,
          103.486824, 155.874161, 8.23383904, 0.0703136697, 0.067054674,
          0.0547405444, 0.0397214144, 0.0696004182, 0. ]
      - [ 45.6864967, 8.84229279, 5.24300385, 35.4465942, 19.2007446,
          4.72492218, 12.0097189, 98.9108353, 11.7426472, 10.6010761,
          19.2454529, 31.7568321, 16.058567, 14.0520763, 63.2000313, 0.,
          33.7449799, 1.36082816, 2.87743402, 128.054901, 5.39202738,
          2.49680305, 4.66984987, 35.5239296, 1.06929338, 0.0221835729,
          0.0350755751, 128., 0., 0.879690945, 6.45067787, 0.,
          0.267874718, 0.139136419, 0.0124009186, 0., 0., 0., 0., 0., 0.,
          0., 0., 0., 0.0124009186, 0.0745797604, 0.53578651, 0.,
          0.0516167544, 0.0166376792, 0., 128.027832, 0., 0., 0., 0., 0.,
          0., 0., 128., 0., 0.0166376792, 0.0124010695, 0. ]
      - [ 7.92559481, 15.2129488, 70.0153427, 50.0049591, 31.2841339,
          13.7815475, 7.18125296, 31.7281933, 17.2474766, 55.1393204,
          71.1404419, 42.2234306, 2.49555182, 4.96472502, 2.4162519, 0.,
          0., 0., 0., 0., 0., 0., 0., 0., 0., 0., 0., 0., 0., 0., 0., 0.,
          107.674934, 3.63922095, 35.7316971, 3.0600431, 17.9086533,
          17.4169044, 4.59118509, 114.254173, 18.6408443, 16.8165913,
          7.65175533, 15.8847733, 20.0824451, 59.4233208, 43.5410423, 0.,
          10.4331598, 5.18689632, 2.5266459, 7.99578714, 2.61069369,
          6.26944542, 27.0602856, 136.07637, 0.0299388021, 0.0221835729,
          0., 0.00784301758, 0.0337346084, 8.6321106, 145.008926, 0. ]
      - [ 0., 0., 0., 0., 0., 0., 0., 0., 0., 0., 0., 0., 0., 0., 0., 0.,
          0., 0., 0., 0., 0., 0., 0., 0., 0., 0., 0., 0., 0., 0., 0., 0.,
          167.30867, 53.8036308, 6.88438463, 24.9353466, 9.88597107,
          6.23278475, 21.0061779, 85.5400391, 118.320618, 71.0112076,
          15.9978294, 33.752079, 23.9909592, 22.136179, 29.4699688, 0.,
          174.51268, 31.9070396, 23.8131886, 22.0853481, 17.747839,
          17.5195866, 29.4593067, 171.71817, 14.7322159, 8.69323063,
          9.84032536, 7.96975708, 4.40175676, 5.97815418, 19.1886921,
          0.00784313679 ]
      - [ 0., 0., 0., 0., 0., 0., 0., 0., 0., 0., 0., 0., 0., 0., 0., 0.,
          0., 0., 0., 0., 0., 0., 0., 0., 0., 0., 0., 0., 0., 0., 0., 0.,
          57.8920059, 43.9610214, 42.5713654, 68.425705, 48.9125023,
          45.2392197, 47.1738739, 65.5055618, 51.4094887, 42.2490845,
          48.4546242, 84.6955109, 46.163002, 56.1923904, 58.1104965, 0.,
          181.567673, 28.457592, 1.9643774, 7.99325514, 0.0647940263,
          6.24331331, 9.51316833, 80.6151276, 114.33741, 5.13291216,
          0.0299389176, 0.0392156839, 0.0722787827, 0.0561417453,
          4.06568098, 0. ]
      - [ 31.5472889, 41.1118317, 47.9512444, 52.6086655, 28.3624382,
          23.0660419, 13.7535315, 117.343391, 36.3638344, 61.7649574,
          30.4013042, 55.5977821, 21.4868984, 6.95445871, 18.9547405, 0.,
          0., 0., 0., 0., 0., 0., 0., 0., 0., 0., 0., 0., 0., 0., 0., 0.,
          99.0600815, 14.81738, 3.02630067, 2.58774519, 1.72324467,
          2.57485723, 12.5220432, 90.0293274, 1.9224875, 3.02578545,
          10.8074131, 5.46464014, 11.0615864, 26.7177124, 80.6028442, 0.,
          8.00914478, 8.62791729, 2.92035437, 0.0549015999, 10.4390907,
          9.96590233, 100.751991, 55.5863457, 0.0423398726, 0.0783255622,
          0.0248018373, 0.0235295296, 0.492506504, 21.3094578, 129.3582,
          0. ]
      - [ 0., 0., 0., 0., 0., 0., 0., 0., 0., 0., 0., 0., 0., 0., 0., 0.,
          0., 0., 0., 0., 0., 0., 0., 0., 0., 0., 0., 0., 0., 0., 0., 0.,
          113.372696, 56.9668884, 11.7436609, 24.3807907, 14.1787148,
          15.335041, 8.64522266, 23.3535061, 125.064644, 52.3277359,
          28.6275177, 38.3929253, 23.4078693, 28.087616, 3.26816368, 0.,
          157.391785, 85.7765121, 32.6644516, 8.15453053, 22.4402199,
          17.9326859, 28.3908882, 187.112473, 12.6151323, 52.4657021,
          7.21159983, 7.15562296, 2.68906116, 4.77364016, 39.3082504, 0. ]
      - [ 20.9629631, 29.1766071, 30.6546974, 17.6398201, 21.7470284,
          5.44098663, 33.3643379, 59.7550697, 26.7830811, 63.3984566,
          14.2839003, 15.3286667, 5.78841829, 15.0843124, 89.9850006, 0.,
          28.4190102, 0., 0., 0.0313725471, 0.0199960954, 2.56611466,
          17.4694557, 129.031433, 1.22368598, 0., 0., 0., 0., 0.,
          12.7662611, 0., 0.20840688, 0.0849887207, 0.0175379999, 0., 0.,
          0., 0., 0., 0., 0., 0., 0., 0.047668919, 0.514758825,
          5.67801857, 0., 54.9938126, 5.17631435, 0.0299387053,
